{"learner":{"attributes":{"best_iteration":"17","best_score":"1.6947785630642394"},"feature_names":["GDP","MortRateAdult","CleanFuels","UnderFiveDeaths","FertilityRate","BasicSanitation","AccessElectricityRural","HealthExpenditure"],"feature_types":["float","float","float","float","float","float","float","float"],"gradient_booster":{"gbtree":{"model":{"gbtree_model_param":{"num_parallel_tree":"1","num_trees":"18"},"iteration_indptr":[0,1,2,3,4,5,6,7,8,9,10,11,12,13,14,15,16,17,18],"tree_info":[0,0,0,0,0,0,0,0,0,0,0,0,0,0,0,0,0,0],"trees":[{"base_weights":[-3.5939554E-6,4.8970237E0,-9.794058E0,8.373498E0,1.454112E0,-5.8536763E0,-1.3943884E1,6.2041287E0,1.0428484E1,2.2985706E0,-1.4242194E0,-4.093743E0,-8.296952E0,-1.123553E1,-1.8303587E0,6.994834E0,4.1625233E0,1.0850987E0,8.127982E-1,3.255917E0,5.2090025E-1,-2.5098014E-1,-3.0931046E0,-2.4253156E0,-5.634056E0,-7.452731E0,-1.4035039E0,-7.066335E-1,-1.1850383E1,7.7841395E-1,6.1723083E-1,4.5374017E0,1.8256286E-1,4.11821E0,2.5432866E0,1.3796821E0,-2.9909948E-1,-1.4966675E0,9.117296E-1,-2.1103308E0,-4.8008934E-1,-1.6060424E0,-3.4507616E0,-4.436542E-1,-6.4683944E-1,-8.121647E-1,-5.1945596E0,-1.0921677E0,-1.4363542E0,4.796253E-1,2.740681E-1,4.3292627E-1,1.5984297E-1,3.487443E-1,2.1191247E-1,8.392008E-2,2.5848582E-1,1.0884052E-1,-5.6995373E-2,-9.601477E-2,-2.739126E-1,1.501588E-1,4.9274447E-3,-2.85081E-1,-1.1322842E-1,-4.7291413E-2,-2.0112608E-1,-3.736855E-1,-1.6162354E-1,-5.6164944E-1,-2.2081815E-1],"categories":[],"categories_nodes":[],"categories_segments":[],"categories_sizes":[],"default_left":[0,0,0,0,0,0,0,0,0,0,0,0,0,0,0,0,0,0,0,0,0,0,0,0,0,0,0,0,0,0,0,0,0,0,0,0,0,0,0,0,0,0,0,0,0,0,0,0,0,0,0,0,0,0,0,0,0,0,0,0,0,0,0,0,0,0,0,0,0,0,0],"id":0,"left_children":[1,3,5,7,9,11,13,15,17,19,21,23,25,27,-1,29,31,-1,-1,33,35,37,39,41,43,45,-1,-1,47,-1,-1,49,-1,51,53,55,57,59,61,63,-1,65,67,-1,-1,-1,69,-1,-1,-1,-1,-1,-1,-1,-1,-1,-1,-1,-1,-1,-1,-1,-1,-1,-1,-1,-1,-1,-1,-1,-1],"loss_changes":[5.3093664E4,8.821088E3,5.9522227E3,1.5713945E3,9.074686E2,7.8733496E2,1.907918E3,2.6307324E2,9.356445E1,4.884358E2,1.6565384E2,2.7673425E2,2.7809375E2,2.0593066E2,0E0,3.5703613E1,3.8147156E1,0E0,0E0,1.0443689E2,7.224115E1,7.523157E1,4.861148E1,4.150467E1,2.9252441E1,6.505884E1,0E0,0E0,6.952246E1,0E0,0E0,7.7837524E0,0E0,3.721997E1,3.4659607E1,3.0399544E1,2.0538355E1,1.4035126E1,1.3661623E1,1.4153442E1,0E0,1.4201279E1,6.556671E0,0E0,0E0,0E0,1.1538818E1,0E0,0E0,0E0,0E0,0E0,0E0,0E0,0E0,0E0,0E0,0E0,0E0,0E0,0E0,0E0,0E0,0E0,0E0,0E0,0E0,0E0,0E0,0E0,0E0],"parents":[2147483647,0,0,1,1,2,2,3,3,4,4,5,5,6,6,7,7,8,8,9,9,10,10,11,11,12,12,13,13,15,15,16,16,19,19,20,20,21,21,22,22,23,23,24,24,25,25,28,28,31,31,33,33,34,34,35,35,36,36,37,37,38,38,39,39,41,41,42,42,46,46],"right_children":[2,4,6,8,10,12,14,16,18,20,22,24,26,28,-1,30,32,-1,-1,34,36,38,40,42,44,46,-1,-1,48,-1,-1,50,-1,52,54,56,58,60,62,64,-1,66,68,-1,-1,-1,70,-1,-1,-1,-1,-1,-1,-1,-1,-1,-1,-1,-1,-1,-1,-1,-1,-1,-1,-1,-1,-1,-1,-1,-1],"split_conditions":[3.54E1,5.051387E0,7.55E1,7.334695E0,5.5399055E0,5.6439333E0,5.8879356E0,1.46E1,4.6960797E0,2.29E1,2.25E1,5.32E1,6.1389856E0,5.6291127E0,-1.8303587E0,4.774229E0,2.64E1,1.0850987E0,8.127982E-1,5.2527966E0,5.292827E0,5.4693046E0,5.723167E0,5.455646E0,5.4899993E0,7.173594E1,-1.4035039E0,-7.066335E-1,1.095E2,7.7841395E-1,6.1723083E-1,3.567E0,1.8256286E-1,2.782E0,1.24E1,8.331465E0,2.059E0,5.9127135E0,5.7042656E0,4.18205E0,-4.8008934E-1,5.311727E0,5.6326194E0,-4.436542E-1,-6.4683944E-1,-8.121647E-1,8.31536E1,-1.0921677E0,-1.4363542E0,4.796253E-1,2.740681E-1,4.3292627E-1,1.5984297E-1,3.487443E-1,2.1191247E-1,8.392008E-2,2.5848582E-1,1.0884052E-1,-5.6995373E-2,-9.601477E-2,-2.739126E-1,1.501588E-1,4.9274447E-3,-2.85081E-1,-1.1322842E-1,-4.7291413E-2,-2.0112608E-1,-3.736855E-1,-1.6162354E-1,-5.6164944E-1,-2.2081815E-1],"split_indices":[3,1,3,7,1,1,1,3,1,3,3,3,1,1,0,1,3,0,0,1,1,7,1,1,1,5,0,0,3,0,0,4,0,4,3,0,4,1,1,2,0,1,1,0,0,0,5,0,0,0,0,0,0,0,0,0,0,0,0,0,0,0,0,0,0,0,0,0,0,0,0],"split_type":[0,0,0,0,0,0,0,0,0,0,0,0,0,0,0,0,0,0,0,0,0,0,0,0,0,0,0,0,0,0,0,0,0,0,0,0,0,0,0,0,0,0,0,0,0,0,0,0,0,0,0,0,0,0,0,0,0,0,0,0,0,0,0,0,0,0,0,0,0,0,0],"sum_hessian":[1.105E3,7.37E2,3.68E2,3.66E2,3.71E2,1.9E2,1.78E2,1.8E2,1.86E2,2.87E2,8.4E1,1.12E2,7.8E1,1.12E2,6.6E1,1.28E2,5.2E1,1.54E2,3.2E1,1.86E2,1.01E2,5E1,3.4E1,5.5E1,5.7E1,7E1,8E0,1.6E1,9.6E1,6.1E1,6.7E1,4.4E1,8E0,8.2E1,1.04E2,4.9E1,5.2E1,2.4E1,2.6E1,2.3E1,1.1E1,3.2E1,2.3E1,2.6E1,3.1E1,5.2E1,1.8E1,7.4E1,2.2E1,3.7E1,7E0,7.5E1,7E0,3E1,7.4E1,3.5E1,1.4E1,8E0,4.4E1,1.8E1,6E0,1.5E1,1.1E1,1.2E1,1.1E1,9E0,2.3E1,1.9E1,4E0,1.5E1,3E0],"tree_param":{"num_deleted":"0","num_feature":"8","num_nodes":"71","size_leaf_vector":"1"}},{"base_weights":[-4.753375E-3,4.4136677E0,-8.841582E0,7.547674E0,1.3099202E0,-5.0276155E0,-1.2331398E1,5.5965996E0,9.395785E0,2.0740848E0,-1.2946602E0,-2.6315494E0,-6.285586E0,-9.885753E0,-1.6452583E1,6.306169E0,3.763938E0,9.749522E-1,7.219576E-1,2.9051075E0,4.077916E-1,-1.4817429E-1,-2.708783E0,-1.2091168E0,-3.664787E0,-5.578215E0,-9.8269266E-1,-8.388683E0,-1.1768506E1,-1.3244332E0,-1.7557255E0,7.018282E0,5.564152E-1,4.1004124E0,1.6633497E-1,3.7135272E0,2.268708E0,3.5306714E-2,1.9350818E0,4.1653755E-1,-2.335733E0,-2.0180702E0,-4.7101828E-1,-4.3034896E-1,-1.5553569E0,-2.5190017E-1,-4.2028832E-1,-6.4384836E-1,-4.257411E0,-5.0262916E-1,-8.912619E-1,-4.8817727E-1,-1.194634E0,7.110415E-1,2.836197E-1,4.2553663E-1,2.0097077E-1,3.919506E-1,1.5844236E-1,2.7651185E-1,1.6177134E-1,3.4086075E-2,-1.189116E-1,6.0906857E-2,2.3651531E-1,-1.13735795E-1,8.542318E-2,-1.5751724E-1,-3.0827808E-1,-2.8761026E-1,-1.4452489E-1,-5.9088815E-2,5.0725173E-2,-2.1898401E-1,-1.09406926E-1,-3.133459E-1,-4.9698138E-1],"categories":[],"categories_nodes":[],"categories_segments":[],"categories_sizes":[],"default_left":[0,0,0,0,0,0,0,0,0,0,0,0,0,0,0,0,0,0,0,0,0,0,0,0,0,0,0,0,0,0,0,0,0,0,0,0,0,0,0,0,0,0,0,0,0,0,0,0,0,0,0,0,0,0,0,0,0,0,0,0,0,0,0,0,0,0,0,0,0,0,0,0,0,0,0,0,0],"id":1,"left_children":[1,3,5,7,9,11,13,15,17,19,21,23,25,27,29,31,33,-1,-1,35,37,39,41,43,45,47,-1,49,51,-1,-1,53,-1,55,-1,57,59,61,63,65,67,69,-1,71,73,-1,-1,-1,75,-1,-1,-1,-1,-1,-1,-1,-1,-1,-1,-1,-1,-1,-1,-1,-1,-1,-1,-1,-1,-1,-1,-1,-1,-1,-1,-1,-1],"loss_changes":[4.322261E4,7.16876E3,4.8494062E3,1.2707441E3,7.430872E2,5.199829E2,1.7725137E3,2.1163672E2,7.356641E1,3.9761682E2,1.3740671E2,8.8160675E1,2.3576855E2,2.4796777E2,1.5548828E1,2.9113281E1,3.0639648E1,0E0,0E0,9.035486E1,5.5114265E1,6.0269253E1,4.302542E1,6.8805923E0,1.1608459E1,8.5076904E1,0E0,8.204297E1,5.364746E0,0E0,0E0,3.7226562E0,0E0,6.026306E0,0E0,3.0189575E1,3.1074463E1,2.9961376E1,9.394775E0,2.7496683E1,8.258438E-1,1.0588287E1,0E0,1.8049452E0,3.1650696E0,0E0,0E0,0E0,1.8057007E1,0E0,0E0,0E0,0E0,0E0,0E0,0E0,0E0,0E0,0E0,0E0,0E0,0E0,0E0,0E0,0E0,0E0,0E0,0E0,0E0,0E0,0E0,0E0,0E0,0E0,0E0,0E0,0E0],"parents":[2147483647,0,0,1,1,2,2,3,3,4,4,5,5,6,6,7,7,8,8,9,9,10,10,11,11,12,12,13,13,14,14,15,15,16,16,19,19,20,20,21,21,22,22,23,23,24,24,25,25,27,27,28,28,31,31,33,33,35,35,36,36,37,37,38,38,39,39,40,40,41,41,43,43,44,44,48,48],"right_children":[2,4,6,8,10,12,14,16,18,20,22,24,26,28,30,32,34,-1,-1,36,38,40,42,44,46,48,-1,50,52,-1,-1,54,-1,56,-1,58,60,62,64,66,68,70,-1,72,74,-1,-1,-1,76,-1,-1,-1,-1,-1,-1,-1,-1,-1,-1,-1,-1,-1,-1,-1,-1,-1,-1,-1,-1,-1,-1,-1,-1,-1,-1,-1,-1],"split_conditions":[3.54E1,5.051387E0,7.21E1,7.334695E0,5.5399055E0,5.498139E0,5.8879356E0,1.46E1,4.7154765E0,2.34E1,2.08E1,4.72E1,5.970149E0,9.59E1,5.986849E0,4.774229E0,2.64E1,9.749522E-1,7.219576E-1,5.2527966E0,5.5348196E0,5.840019E0,5.742009E0,5.311727E0,2.757E0,4.7137226E1,-9.8269266E-1,5.5072036E0,5.498139E0,-1.3244332E0,-1.7557255E0,2.952E0,5.564152E-1,3.779E0,1.6633497E-1,2.685E0,1.6E1,3.779E0,8.200759E0,5.1914825E0,5.9573593E0,3.706228E0,-4.7101828E-1,7.460421E0,5.66934E1,-2.5190017E-1,-4.2028832E-1,-6.4384836E-1,5.6439333E0,-5.0262916E-1,-8.912619E-1,-4.8817727E-1,-1.194634E0,7.110415E-1,2.836197E-1,4.2553663E-1,2.0097077E-1,3.919506E-1,1.5844236E-1,2.7651185E-1,1.6177134E-1,3.4086075E-2,-1.189116E-1,6.0906857E-2,2.3651531E-1,-1.13735795E-1,8.542318E-2,-1.5751724E-1,-3.0827808E-1,-2.8761026E-1,-1.4452489E-1,-5.9088815E-2,5.0725173E-2,-2.1898401E-1,-1.09406926E-1,-3.133459E-1,-4.9698138E-1],"split_indices":[3,1,3,7,1,1,1,3,1,3,3,3,1,3,1,1,3,0,0,1,7,1,1,1,4,5,0,1,1,0,0,4,0,4,0,4,3,4,0,7,1,2,0,0,5,0,0,0,1,0,0,0,0,0,0,0,0,0,0,0,0,0,0,0,0,0,0,0,0,0,0,0,0,0,0,0,0],"split_type":[0,0,0,0,0,0,0,0,0,0,0,0,0,0,0,0,0,0,0,0,0,0,0,0,0,0,0,0,0,0,0,0,0,0,0,0,0,0,0,0,0,0,0,0,0,0,0,0,0,0,0,0,0,0,0,0,0,0,0,0,0,0,0,0,0,0,0,0,0,0,0,0,0,0,0,0,0],"sum_hessian":[1.105E3,7.37E2,3.68E2,3.66E2,3.71E2,1.77E2,1.91E2,1.8E2,1.86E2,2.87E2,8.4E1,6.2E1,1.15E2,1.22E2,6.9E1,1.28E2,5.2E1,1.57E2,2.9E1,1.91E2,9.6E1,4.7E1,3.7E1,2.7E1,3.5E1,9.8E1,1.7E1,7.1E1,5.1E1,2.1E1,4.8E1,6.1E1,6.7E1,4.4E1,8E0,8.2E1,1.09E2,7.8E1,1.8E1,3.8E1,9E0,2.9E1,8E0,9E0,1.8E1,1.3E1,2.2E1,5.7E1,4.1E1,1.1E1,6E1,2E0,4.9E1,5.9E1,2E0,4E1,4E0,7.4E1,8E0,6E1,4.9E1,6.3E1,1.5E1,5E0,1.3E1,8E0,3E1,6E0,3E0,1E1,1.9E1,8E0,1E0,6E0,1.2E1,1.8E1,2.3E1],"tree_param":{"num_deleted":"0","num_feature":"8","num_nodes":"77","size_leaf_vector":"1"}},{"base_weights":[-9.485103E-3,3.97751E0,-7.9834495E0,6.803917E0,1.1784E0,-4.5442142E0,-1.1130327E1,4.810536E0,8.271299E0,1.870846E0,-1.1816335E0,-3.240367E0,-6.4635286E0,-8.922193E0,-1.485133E1,5.2775083E0,2.7272127E0,8.658901E0,6.010218E-1,2.6197448E0,3.6920244E-1,-1.4365213E-1,-2.4616723E0,-1.5058606E0,-4.160444E0,-5.6014805E0,-9.308409E-1,-7.5691776E0,-1.0624018E0,-1.2693905E0,-1.6334059E0,5.615152E0,4.1353485E-1,3.0827886E-1,1.5154953E-1,9.165406E-1,7.811751E-1,3.4669733E0,2.1162834E0,3.0700684E-2,1.7572254E0,-1.2283202E0,8.2138705E-1,-1.8306676E0,-4.291502E-1,-9.0582216E-1,-2.4055338E0,-2.554353E0,-4.667276E0,-3.1535907E0,-5.9947604E-1,-4.924336E-1,-8.1226856E-1,5.7182974E-1,3.114914E-1,3.8597426E-1,2.2920632E-1,2.2450419E-1,2.358958E-2,5.4832317E-2,-5.716903E-2,5.5831403E-2,2.1455286E-1,4.973812E-2,-1.5120445E-1,1.4243312E-1,-7.4195865E-5,-2.6146364E-1,-1.3079514E-1,4.8188783E-2,-9.8372206E-2,-2.806544E-1,-6.0112E-2,-7.033844E-2,-2.6181078E-1,-4.877038E-1,-2.9039547E-1,-7.241707E-2,-3.343063E-1],"categories":[],"categories_nodes":[],"categories_segments":[],"categories_sizes":[],"default_left":[0,0,0,0,0,0,0,0,0,0,0,0,0,0,0,0,0,0,0,0,0,0,0,0,0,0,0,0,0,0,0,0,0,0,0,0,0,0,0,0,0,0,0,0,0,0,0,0,0,0,0,0,0,0,0,0,0,0,0,0,0,0,0,0,0,0,0,0,0,0,0,0,0,0,0,0,0,0,0],"id":2,"left_children":[1,3,5,7,9,11,13,15,17,19,21,23,25,27,29,31,33,35,-1,37,39,41,43,45,47,49,-1,51,-1,-1,-1,53,-1,-1,-1,-1,-1,55,57,59,61,63,65,67,-1,69,71,73,75,77,-1,-1,-1,-1,-1,-1,-1,-1,-1,-1,-1,-1,-1,-1,-1,-1,-1,-1,-1,-1,-1,-1,-1,-1,-1,-1,-1,-1,-1],"loss_changes":[3.519388E4,5.8306133E3,3.9430566E3,1.0337051E3,6.1013153E2,4.2449927E2,1.4450527E3,1.3931812E2,1.3200293E2,3.2291162E2,1.1258216E2,1.6608984E2,1.219812E2,2.0280469E2,1.6579102E1,2.6141846E1,8.684631E0,4.3496094E0,0E0,7.455994E1,4.5521328E1,5.1252792E1,3.601967E1,1.887471E1,4.505957E1,3.5969116E1,0E0,6.54043E1,0E0,0E0,0E0,6.9450684E0,0E0,0E0,0E0,0E0,0E0,2.3455994E1,2.925055E1,2.494655E1,7.6474E0,1.2013401E1,1.28892E1,8.873978E0,0E0,3.1766071E0,9.166756E0,4.0061188E-1,5.070923E0,2.1821213E0,0E0,0E0,0E0,0E0,0E0,0E0,0E0,0E0,0E0,0E0,0E0,0E0,0E0,0E0,0E0,0E0,0E0,0E0,0E0,0E0,0E0,0E0,0E0,0E0,0E0,0E0,0E0,0E0,0E0],"parents":[2147483647,0,0,1,1,2,2,3,3,4,4,5,5,6,6,7,7,8,8,9,9,10,10,11,11,12,12,13,13,14,14,15,15,16,16,17,17,19,19,20,20,21,21,22,22,23,23,24,24,25,25,27,27,31,31,37,37,38,38,39,39,40,40,41,41,42,42,43,43,45,45,46,46,47,47,48,48,49,49],"right_children":[2,4,6,8,10,12,14,16,18,20,22,24,26,28,30,32,34,36,-1,38,40,42,44,46,48,50,-1,52,-1,-1,-1,54,-1,-1,-1,-1,-1,56,58,60,62,64,66,68,-1,70,72,74,76,78,-1,-1,-1,-1,-1,-1,-1,-1,-1,-1,-1,-1,-1,-1,-1,-1,-1,-1,-1,-1,-1,-1,-1,-1,-1,-1,-1,-1,-1],"split_conditions":[3.54E1,5.051387E0,7.21E1,7.1550956E0,5.5399055E0,5.6439333E0,5.8879356E0,1.87E1,4.7792497E0,2.34E1,2.08E1,4.72E1,5.976988E0,9.59E1,1.152E2,4.9508853E0,2.64E1,4.5E0,6.010218E-1,5.221944E0,5.5348196E0,5.4693046E0,5.742009E0,5.467182E0,5.442374E0,2.829E0,-9.308409E-1,5.549259E0,-1.0624018E0,-1.2693905E0,-1.6334059E0,2.952E0,4.1353485E-1,3.0827886E-1,1.5154953E-1,9.165406E-1,7.811751E-1,2.276E0,2.919E0,5.32093E0,8.200759E0,5.600139E0,5.7042656E0,3.706228E0,-4.291502E-1,4.966377E0,5.6326194E0,2.415E0,4.5767584E0,6.077487E0,-5.9947604E-1,-4.924336E-1,-8.1226856E-1,5.7182974E-1,3.114914E-1,3.8597426E-1,2.2920632E-1,2.2450419E-1,2.358958E-2,5.4832317E-2,-5.716903E-2,5.5831403E-2,2.1455286E-1,4.973812E-2,-1.5120445E-1,1.4243312E-1,-7.4195865E-5,-2.6146364E-1,-1.3079514E-1,4.8188783E-2,-9.8372206E-2,-2.806544E-1,-6.0112E-2,-7.033844E-2,-2.6181078E-1,-4.877038E-1,-2.9039547E-1,-7.241707E-2,-3.343063E-1],"split_indices":[3,1,3,7,1,1,1,3,1,3,3,3,1,3,3,1,3,3,0,1,7,7,1,1,1,4,0,1,0,0,0,4,0,0,0,0,0,4,4,1,0,1,1,2,0,1,1,4,6,0,0,0,0,0,0,0,0,0,0,0,0,0,0,0,0,0,0,0,0,0,0,0,0,0,0,0,0,0,0],"split_type":[0,0,0,0,0,0,0,0,0,0,0,0,0,0,0,0,0,0,0,0,0,0,0,0,0,0,0,0,0,0,0,0,0,0,0,0,0,0,0,0,0,0,0,0,0,0,0,0,0,0,0,0,0,0,0,0,0,0,0,0,0,0,0,0,0,0,0,0,0,0,0,0,0,0,0,0,0,0,0],"sum_hessian":[1.105E3,7.37E2,3.68E2,3.66E2,3.71E2,1.77E2,1.91E2,1.57E2,2.09E2,2.87E2,8.4E1,1.07E2,7E1,1.22E2,6.9E1,1.27E2,3E1,1.76E2,3.3E1,1.91E2,9.6E1,4.7E1,3.7E1,3.8E1,6.9E1,5.6E1,1.4E1,7.1E1,5.1E1,3.2E1,3.7E1,9.5E1,3.2E1,2.2E1,8E0,1.04E2,7.2E1,6.9E1,1.22E2,7.8E1,1.8E1,2.2E1,2.5E1,2.9E1,8E0,2.4E1,1.4E1,1.8E1,5.1E1,9E0,4.7E1,1.4E1,5.7E1,9E1,5E0,5E1,1.9E1,1.14E2,8E0,4.2E1,3.6E1,5E0,1.3E1,3E0,1.9E1,1.4E1,1.1E1,1E1,1.9E1,1E0,2.3E1,1.1E1,3E0,1E0,1.7E1,4.4E1,7E0,1E0,8E0],"tree_param":{"num_deleted":"0","num_feature":"8","num_nodes":"79","size_leaf_vector":"1"}},{"base_weights":[-1.2425752E-2,3.5857298E0,-7.208703E0,6.0479794E0,9.6946055E-1,-3.8046281E0,-9.79649E0,4.2845488E0,7.455116E0,1.5971332E0,-1.0726503E0,-2.0720148E0,-4.8133883E0,-7.8172145E0,-1.3301691E1,4.7352743E0,2.5242121E0,8.056947E-1,6.189705E0,2.278018E0,2.401539E-1,-3.099E-1,-2.5348616E0,-9.9107605E-1,-2.901258E0,-4.284648E0,-6.740556E-1,-6.2792945E0,-9.219553E0,-1.1461269E1,-1.4743636E0,5.0628366E0,3.830742E-1,2.8556693E0,1.4811616E-1,6.568728E-1,4.9564227E-1,3.3293244E-1,1.970169E0,5.270692E-1,-9.846081E-1,-1.2572418E0,6.481281E-1,-1.664615E0,-3.8075724E-1,-3.1427002E-1,-1.2951279E0,-2.0536199E-1,-3.328195E-1,-5.0465614E-1,-3.221603E0,-4.6695128E-1,-6.899207E0,-8.2549393E-1,-1.132354E0,-9.958113E-1,-1.50313E0,5.2207035E-1,3.5227117E-1,3.0674475E-1,1.6032054E-1,2.4842139E-1,1.3250218E-1,7.064565E-2,-8.868646E-2,-6.427168E-2,-1.3316326E-1,1.8584188E-2,-1.5656278E-1,3.618204E-2,1.9500412E-1,-1.8733472E-1,7.30718E-3,-5.0753117E-2,3.058497E-2,-1.8657368E-1,-8.8825166E-2,-1.9310965E-1,-3.5110152E-1,-1.779602E-1,-6.9718164E-1],"categories":[],"categories_nodes":[],"categories_segments":[],"categories_sizes":[],"default_left":[0,0,0,0,0,0,0,0,0,0,0,0,0,0,0,0,0,0,0,0,0,0,0,0,0,0,0,0,0,0,0,0,0,0,0,0,0,0,0,0,0,0,0,0,0,0,0,0,0,0,0,0,0,0,0,0,0,0,0,0,0,0,0,0,0,0,0,0,0,0,0,0,0,0,0,0,0,0,0,0,0],"id":3,"left_children":[1,3,5,7,9,11,13,15,17,19,21,23,25,27,29,31,33,-1,35,37,39,41,43,45,47,49,-1,51,53,55,-1,57,-1,59,-1,-1,-1,-1,61,63,65,67,69,71,-1,73,75,-1,-1,-1,77,-1,79,-1,-1,-1,-1,-1,-1,-1,-1,-1,-1,-1,-1,-1,-1,-1,-1,-1,-1,-1,-1,-1,-1,-1,-1,-1,-1,-1,-1],"loss_changes":[2.8663865E4,4.7482656E3,3.2132559E3,9.109844E2,4.6187112E2,2.7142114E2,1.3460098E3,1.2372339E2,1.1005859E2,2.5353827E2,9.401514E1,5.1802673E1,7.403516E1,2.3541699E2,2.7399414E1,2.0604736E1,8.562164E0,0E0,1.0986328E0,5.266742E1,3.3199432E1,5.254692E1,2.5781448E1,5.354933E0,5.4693604E0,5.0157715E1,0E0,3.5642822E1,4.656299E1,4.8870605E1,0E0,4.9501953E0,0E0,2.2438507E0,0E0,0E0,0E0,0E0,4.4463684E1,1.99033E1,1.2797413E0,1.3196728E1,1.0104123E1,7.0284004E0,0E0,1.3536788E0,2.753933E0,0E0,0E0,0E0,7.038971E0,0E0,5.064209E0,0E0,0E0,0E0,0E0,0E0,0E0,0E0,0E0,0E0,0E0,0E0,0E0,0E0,0E0,0E0,0E0,0E0,0E0,0E0,0E0,0E0,0E0,0E0,0E0,0E0,0E0,0E0,0E0],"parents":[2147483647,0,0,1,1,2,2,3,3,4,4,5,5,6,6,7,7,8,8,9,9,10,10,11,11,12,12,13,13,14,14,15,15,16,16,18,18,19,19,20,20,21,21,22,22,23,23,24,24,25,25,27,27,28,28,29,29,31,31,33,33,38,38,39,39,40,40,41,41,42,42,43,43,45,45,46,46,50,50,52,52],"right_children":[2,4,6,8,10,12,14,16,18,20,22,24,26,28,30,32,34,-1,36,38,40,42,44,46,48,50,-1,52,54,56,-1,58,-1,60,-1,-1,-1,-1,62,64,66,68,70,72,-1,74,76,-1,-1,-1,78,-1,80,-1,-1,-1,-1,-1,-1,-1,-1,-1,-1,-1,-1,-1,-1,-1,-1,-1,-1,-1,-1,-1,-1,-1,-1,-1,-1,-1,-1],"split_conditions":[3.54E1,5.0817275E0,6.78E1,7.1550956E0,5.5399055E0,5.498139E0,5.8879356E0,1.87E1,4.5624924E0,2.34E1,2.37E1,4.72E1,5.928985E0,5.7070436E0,1.152E2,4.9508853E0,2.64E1,8.056947E-1,4.905504E0,8.9E0,3.613E0,5.4693046E0,5.723167E0,5.311727E0,2.757E0,4.7137226E1,-6.740556E-1,5.563374E0,1.088E2,6.342602E0,-1.4743636E0,2.643E0,3.830742E-1,3.779E0,1.4811616E-1,6.568728E-1,4.9564227E-1,3.3293244E-1,5.2971416E0,5.432232E0,4.25E0,5.600139E0,6.3295565E0,5.7165933E0,-3.8075724E-1,7.3717957E0,5.66934E1,-2.0536199E-1,-3.328195E-1,-5.0465614E-1,6.413237E1,-4.6695128E-1,1.816E0,-8.2549393E-1,-1.132354E0,-9.958113E-1,-1.50313E0,5.2207035E-1,3.5227117E-1,3.0674475E-1,1.6032054E-1,2.4842139E-1,1.3250218E-1,7.064565E-2,-8.868646E-2,-6.427168E-2,-1.3316326E-1,1.8584188E-2,-1.5656278E-1,3.618204E-2,1.9500412E-1,-1.8733472E-1,7.30718E-3,-5.0753117E-2,3.058497E-2,-1.8657368E-1,-8.8825166E-2,-1.9310965E-1,-3.5110152E-1,-1.779602E-1,-6.9718164E-1],"split_indices":[3,1,3,7,1,1,1,3,1,3,3,3,1,1,3,1,3,0,1,3,4,7,1,1,4,5,0,1,3,1,0,4,0,4,0,0,0,0,1,1,4,1,7,1,0,0,5,0,0,0,5,0,4,0,0,0,0,0,0,0,0,0,0,0,0,0,0,0,0,0,0,0,0,0,0,0,0,0,0,0,0],"split_type":[0,0,0,0,0,0,0,0,0,0,0,0,0,0,0,0,0,0,0,0,0,0,0,0,0,0,0,0,0,0,0,0,0,0,0,0,0,0,0,0,0,0,0,0,0,0,0,0,0,0,0,0,0,0,0,0,0,0,0,0,0,0,0,0,0,0,0,0,0,0,0,0,0,0,0,0,0,0,0,0,0],"sum_hessian":[1.105E3,7.37E2,3.68E2,3.79E2,3.58E2,1.6E2,2.08E2,1.7E2,2.09E2,2.74E2,8.4E1,6E1,1E2,1.35E2,7.3E1,1.34E2,3.6E1,1.38E2,7.1E1,1.82E2,9.2E1,5.6E1,2.8E1,2.7E1,3.3E1,8.1E1,1.9E1,6.7E1,6.8E1,3.6E1,3.7E1,9.5E1,3.9E1,2.6E1,1E1,5.1E1,2E1,3.9E1,1.43E2,7.5E1,1.7E1,2.8E1,2.8E1,1.8E1,1E1,9E0,1.8E1,1.3E1,2E1,4.5E1,3.6E1,2.1E1,4.6E1,5E1,1.8E1,2.8E1,8E0,8.4E1,1.1E1,2.1E1,5E0,7.8E1,6.5E1,6.7E1,8E0,1E1,7E0,5E0,2.3E1,2.4E1,4E0,1.6E1,2E0,7E0,2E0,6E0,1.2E1,8E0,2.8E1,1E0,4.5E1],"tree_param":{"num_deleted":"0","num_feature":"8","num_nodes":"81","size_leaf_vector":"1"}},{"base_weights":[-1.6579764E-2,3.232389E0,-6.5144725E0,5.453262E0,8.7260056E-1,-4.4433365E0,-1.0030144E1,4.078083E0,6.9269285E0,1.4392322E0,-9.7088563E-1,-2.8939307E0,-6.255305E0,-8.341377E0,-1.3259842E0,4.766185E0,2.9725337E0,7.6489896E-1,6.0505515E-1,2.1351805E0,3.4331992E-1,-9.970093E-2,-2.04578E0,-1.6435702E0,-3.8745923E0,-5.4316545E0,-1.0600338E0,-7.6268134E0,-1.0685395E0,3.521024E-1,5.0224876E0,3.217935E0,1.4791172E0,6.83059E-1,2.326798E0,9.114102E-1,-2.0046766E-1,3.660433E-1,-1.9061333E0,-1.3747779E0,-3.2304163E0,-1.0868007E0,-2.3870437E0,-2.143927E-1,-4.0912385E0,-5.873365E-1,-3.425433E0,-3.8594505E-1,-7.843877E-1,5.392317E-1,4.1677403E-1,3.4038156E-1,1.8180345E-1,1.5362403E-1,3.968201E-2,8.334756E-2,-4.9726617E-2,2.6875198E-1,1.6861919E-1,1.3400817E-1,3.4332275E-4,8.187553E-2,-4.1305836E-2,-9.29163E-2,6.78406E-2,-1.1763556E-1,-2.706711E-1,-2.0057479E-1,-6.906787E-2,-2.0881076E-1,-3.911237E-1,-6.727988E-2,-1.7356656E-1,-2.5482303E-1,-9.440537E-2,-4.129087E-1,-8.912392E-2,-3.7623894E-1,-1.22124866E-1],"categories":[],"categories_nodes":[],"categories_segments":[],"categories_sizes":[],"default_left":[0,0,0,0,0,0,0,0,0,0,0,0,0,0,0,0,0,0,0,0,0,0,0,0,0,0,0,0,0,0,0,0,0,0,0,0,0,0,0,0,0,0,0,0,0,0,0,0,0,0,0,0,0,0,0,0,0,0,0,0,0,0,0,0,0,0,0,0,0,0,0,0,0,0,0,0,0,0,0],"id":4,"left_children":[1,3,5,7,9,11,13,15,17,19,21,23,25,27,-1,29,31,-1,-1,33,35,37,39,41,43,45,-1,47,-1,-1,49,51,53,55,57,59,61,63,65,67,69,71,73,-1,75,-1,77,-1,-1,-1,-1,-1,-1,-1,-1,-1,-1,-1,-1,-1,-1,-1,-1,-1,-1,-1,-1,-1,-1,-1,-1,-1,-1,-1,-1,-1,-1,-1,-1],"loss_changes":[2.337032E4,3.8629443E3,2.6422812E3,7.418428E2,3.7640073E2,6.388467E2,6.31166E2,1.3721777E2,6.8887695E1,2.0900897E2,7.939269E1,1.5058301E2,3.2535254E2,7.26001E1,0E0,2.0931396E1,2.4192749E1,0E0,0E0,4.5156982E1,3.3546116E1,4.108183E1,2.5764847E1,2.141446E1,1.784961E1,6.1408936E1,0E0,3.024121E1,0E0,0E0,8.505127E0,1.1246094E1,1.9410133E-1,4.142811E0,2.9668274E1,2.0624271E1,1.2472122E1,1.6408743E1,2.6583786E0,9.837471E0,1.9431152E0,8.2343445E0,3.1765137E0,0E0,3.8291016E0,0E0,9.516754E0,0E0,0E0,0E0,0E0,0E0,0E0,0E0,0E0,0E0,0E0,0E0,0E0,0E0,0E0,0E0,0E0,0E0,0E0,0E0,0E0,0E0,0E0,0E0,0E0,0E0,0E0,0E0,0E0,0E0,0E0,0E0,0E0],"parents":[2147483647,0,0,1,1,2,2,3,3,4,4,5,5,6,6,7,7,8,8,9,9,10,10,11,11,12,12,13,13,15,15,16,16,19,19,20,20,21,21,22,22,23,23,24,24,25,25,27,27,30,30,31,31,32,32,33,33,34,34,35,35,36,36,37,37,38,38,39,39,40,40,41,41,42,42,44,44,46,46],"right_children":[2,4,6,8,10,12,14,16,18,20,22,24,26,28,-1,30,32,-1,-1,34,36,38,40,42,44,46,-1,48,-1,-1,50,52,54,56,58,60,62,64,66,68,70,72,74,-1,76,-1,78,-1,-1,-1,-1,-1,-1,-1,-1,-1,-1,-1,-1,-1,-1,-1,-1,-1,-1,-1,-1,-1,-1,-1,-1,-1,-1,-1,-1,-1,-1,-1,-1],"split_conditions":[3.54E1,5.0817275E0,8.6E1,7.378729E0,5.5399055E0,5.6619773E0,5.938744E0,1.24E1,4.4607916E0,2.14E1,2.08E1,5.32E1,6.1389856E0,1.219E2,-1.3259842E0,4.364372E0,2.61E1,7.6489896E-1,6.0505515E-1,7.938534E0,5.2971416E0,5.840019E0,5.723167E0,5.467182E0,5.432232E0,7.173594E1,-1.0600338E0,5.498139E0,-1.0685395E0,3.521024E-1,4.8693633E0,3.311E0,3.48E1,7.8572206E0,5.3311086E0,2.952E0,2.059E0,7.938534E0,5.9573593E0,4.18205E0,7.9972405E0,4.49E1,4.109E0,-2.143927E-1,4.304065E0,-5.873365E-1,8.31536E1,-3.8594505E-1,-7.843877E-1,5.392317E-1,4.1677403E-1,3.4038156E-1,1.8180345E-1,1.5362403E-1,3.968201E-2,8.334756E-2,-4.9726617E-2,2.6875198E-1,1.6861919E-1,1.3400817E-1,3.4332275E-4,8.187553E-2,-4.1305836E-2,-9.29163E-2,6.78406E-2,-1.1763556E-1,-2.706711E-1,-2.0057479E-1,-6.906787E-2,-2.0881076E-1,-3.911237E-1,-6.727988E-2,-1.7356656E-1,-2.5482303E-1,-9.440537E-2,-4.129087E-1,-8.912392E-2,-3.7623894E-1,-1.22124866E-1],"split_indices":[3,1,3,7,1,1,1,3,1,3,3,3,1,3,0,2,3,0,0,0,1,1,1,1,1,5,0,1,0,0,1,4,3,0,1,4,4,0,1,2,0,3,4,0,2,0,5,0,0,0,0,0,0,0,0,0,0,0,0,0,0,0,0,0,0,0,0,0,0,0,0,0,0,0,0,0,0,0,0],"split_type":[0,0,0,0,0,0,0,0,0,0,0,0,0,0,0,0,0,0,0,0,0,0,0,0,0,0,0,0,0,0,0,0,0,0,0,0,0,0,0,0,0,0,0,0,0,0,0,0,0,0,0,0,0,0,0,0,0,0,0,0,0,0,0,0,0,0,0,0,0,0,0,0,0,0,0,0,0,0,0],"sum_hessian":[1.105E3,7.37E2,3.68E2,3.79E2,3.58E2,2.33E2,1.35E2,1.98E2,1.81E2,2.74E2,8.4E1,1.27E2,1.06E2,9.1E1,4.4E1,1.2E2,7.8E1,9.5E1,8.6E1,1.67E2,1.07E2,4.7E1,3.7E1,5.7E1,7E1,9.1E1,1.5E1,7.3E1,1.8E1,2.3E1,9.7E1,6.6E1,1.2E1,2E1,1.47E2,5.2E1,5.5E1,3.8E1,9E0,2.5E1,1.2E1,3.4E1,2.3E1,9E0,6.1E1,7.3E1,1.8E1,5E0,6.8E1,6.4E1,3.3E1,5.7E1,9E0,1.1E1,1E0,1.8E1,2E0,9.2E1,5.5E1,3.5E1,1.7E1,9E0,4.6E1,7E0,3.1E1,6E0,3E0,1.2E1,1.3E1,6E0,6E0,2.2E1,1.2E1,2E1,3E0,6E1,1E0,1.5E1,3E0],"tree_param":{"num_deleted":"0","num_feature":"8","num_nodes":"79","size_leaf_vector":"1"}},{"base_weights":[-1.8774105E-2,2.9128852E0,-5.882042E0,4.8952913E0,7.603306E-1,-3.5059352E0,-8.38458E0,3.4689708E0,6.060581E0,1.2748083E0,-8.888904E-1,-3.0131814E0,-6.974172E0,-6.9536443E0,-1.1484259E0,3.9778006E0,2.4274173E0,6.35193E0,4.3656006E-1,1.8334279E0,1.85908E-1,-9.8342575E-2,-1.8640852E0,-1.5599397E0,-3.663715E0,-4.749928E-1,-8.6172354E-1,-5.382765E0,-7.9291267E0,5.272283E-1,3.7484374E0,2.6451147E0,1.2172089E0,7.0741105E-1,5.8696456E0,2.7523901E0,1.574597E0,4.3292037E-1,-8.673613E-1,3.287964E-1,-1.7543503E0,-1.4733979E0,-3.7021855E-1,-6.63454E-1,-2.2550132E0,-2.988102E0,-4.3587017E0,-3.5862848E-1,-5.733461E-1,-7.216794E-1,-9.9349207E-1,3.807122E-1,2.1749662E-1,2.8108528E-1,1.5777689E-1,1.5139328E-1,8.3137624E-2,5.900777E-1,1.2070274E-1,2.8748712E-1,1.6200142E-1,1.9569065E-1,1.0036039E-1,1.9193599E-2,1.2579875E-1,-5.6188412E-2,-1.1789723E-1,-7.754635E-2,6.387817E-2,-1.0755234E-1,-2.5037098E-1,-2.2816062E-1,-8.3398215E-2,-2.1367798E-2,-9.030981E-2,-4.7875214E-2,-2.2997549E-1,-3.5185462E-1,-2.218329E-1,-3.597192E-1,-4.793625E-1],"categories":[],"categories_nodes":[],"categories_segments":[],"categories_sizes":[],"default_left":[0,0,0,0,0,0,0,0,0,0,0,0,0,0,0,0,0,0,0,0,0,0,0,0,0,0,0,0,0,0,0,0,0,0,0,0,0,0,0,0,0,0,0,0,0,0,0,0,0,0,0,0,0,0,0,0,0,0,0,0,0,0,0,0,0,0,0,0,0,0,0,0,0,0,0,0,0,0,0,0,0],"id":5,"left_children":[1,3,5,7,9,11,13,15,17,19,21,23,25,27,-1,29,31,33,-1,35,37,39,41,43,45,-1,-1,47,49,-1,51,53,55,-1,57,59,61,63,65,67,69,71,-1,73,75,77,79,-1,-1,-1,-1,-1,-1,-1,-1,-1,-1,-1,-1,-1,-1,-1,-1,-1,-1,-1,-1,-1,-1,-1,-1,-1,-1,-1,-1,-1,-1,-1,-1,-1,-1],"loss_changes":[1.9028281E4,3.1455E3,2.164789E3,6.172129E2,3.023462E2,3.054021E2,7.140869E2,8.30896E1,7.597412E1,1.6450333E2,6.534642E1,1.5405444E2,4.31239E1,1.4886475E2,0E0,1.4678223E1,1.2587891E1,2.0125977E1,0E0,3.824225E1,2.4571358E1,3.4529404E1,2.1833878E1,3.2152573E1,4.144275E1,0E0,0E0,1.1569092E1,3.5461426E1,0E0,1.1383057E0,4.4101257E0,6.9618225E-4,0E0,9.13501E0,6.130676E-1,2.9034088E1,1.4869498E1,1.0509748E0,1.3845219E1,2.3940544E0,1.5150955E1,0E0,2.5016823E0,1.2831726E0,1.751062E1,9.7229004E-1,0E0,0E0,0E0,0E0,0E0,0E0,0E0,0E0,0E0,0E0,0E0,0E0,0E0,0E0,0E0,0E0,0E0,0E0,0E0,0E0,0E0,0E0,0E0,0E0,0E0,0E0,0E0,0E0,0E0,0E0,0E0,0E0,0E0,0E0],"parents":[2147483647,0,0,1,1,2,2,3,3,4,4,5,5,6,6,7,7,8,8,9,9,10,10,11,11,12,12,13,13,15,15,16,16,17,17,19,19,20,20,21,21,22,22,23,23,24,24,27,27,28,28,30,30,31,31,32,32,34,34,35,35,36,36,37,37,38,38,39,39,40,40,41,41,43,43,44,44,45,45,46,46],"right_children":[2,4,6,8,10,12,14,16,18,20,22,24,26,28,-1,30,32,34,-1,36,38,40,42,44,46,-1,-1,48,50,-1,52,54,56,-1,58,60,62,64,66,68,70,72,-1,74,76,78,80,-1,-1,-1,-1,-1,-1,-1,-1,-1,-1,-1,-1,-1,-1,-1,-1,-1,-1,-1,-1,-1,-1,-1,-1,-1,-1,-1,-1,-1,-1,-1,-1,-1,-1],"split_conditions":[3.54E1,5.086874E0,7.55E1,7.1550956E0,5.5399055E0,5.9655595E0,5.938744E0,1.48E1,4.7792497E0,2.34E1,2.08E1,5.467182E0,6.01E1,5.7070436E0,-1.1484259E0,4.404766E0,2.64E1,4.3655415E0,4.3656006E-1,8.9E0,3.613E0,5.840019E0,6.085284E0,4.72E1,5.9E1,-4.749928E-1,-8.6172354E-1,5.503826E0,1.219E2,5.272283E-1,2.687E0,3.567E0,6.784164E1,7.0741105E-1,8.4E0,5.448305E0,5.326375E0,5.5348196E0,4.25E0,5.1914825E0,5.9573593E0,8.244506E1,-3.7021855E-1,5.311727E0,2.415E0,3.583519E0,5.6109066E0,-3.5862848E-1,-5.733461E-1,-7.216794E-1,-9.9349207E-1,3.807122E-1,2.1749662E-1,2.8108528E-1,1.5777689E-1,1.5139328E-1,8.3137624E-2,5.900777E-1,1.2070274E-1,2.8748712E-1,1.6200142E-1,1.9569065E-1,1.0036039E-1,1.9193599E-2,1.2579875E-1,-5.6188412E-2,-1.1789723E-1,-7.754635E-2,6.387817E-2,-1.0755234E-1,-2.5037098E-1,-2.2816062E-1,-8.3398215E-2,-2.1367798E-2,-9.030981E-2,-4.7875214E-2,-2.2997549E-1,-3.5185462E-1,-2.218329E-1,-3.597192E-1,-4.793625E-1],"split_indices":[3,1,3,7,1,1,1,3,1,3,3,1,3,1,0,1,3,1,0,3,4,1,7,3,3,0,0,1,3,0,4,4,5,0,3,1,1,7,4,7,1,5,0,1,4,2,1,0,0,0,0,0,0,0,0,0,0,0,0,0,0,0,0,0,0,0,0,0,0,0,0,0,0,0,0,0,0,0,0,0,0],"split_type":[0,0,0,0,0,0,0,0,0,0,0,0,0,0,0,0,0,0,0,0,0,0,0,0,0,0,0,0,0,0,0,0,0,0,0,0,0,0,0,0,0,0,0,0,0,0,0,0,0,0,0,0,0,0,0,0,0,0,0,0,0,0,0,0,0,0,0,0,0,0,0,0,0,0,0,0,0,0,0,0,0],"sum_hessian":[1.105E3,7.37E2,3.68E2,3.83E2,3.54E2,1.9E2,1.78E2,1.74E2,2.09E2,2.7E2,8.4E1,1.68E2,2.2E1,1.24E2,5.4E1,1.15E2,5.9E1,1.76E2,3.3E1,1.78E2,9.2E1,4.7E1,3.7E1,5.3E1,1.15E2,1.1E1,1.1E1,5E1,7.4E1,1.4E1,1.01E2,4.9E1,1E1,6.5E1,1.11E2,3.7E1,1.41E2,7.5E1,1.7E1,3.8E1,9E0,3.2E1,5E0,2.4E1,2.9E1,6.1E1,5.4E1,1E1,4E1,5.8E1,1.6E1,9.6E1,5E0,4.1E1,8E0,4E0,6E0,1.1E2,1E0,3.2E1,5E0,8.3E1,5.8E1,5.9E1,1.6E1,1E1,7E0,8E0,3E1,6E0,3E0,1.3E1,1.9E1,9E0,1.5E1,1E0,2.8E1,3.4E1,2.7E1,2.3E1,3.1E1],"tree_param":{"num_deleted":"0","num_feature":"8","num_nodes":"81","size_leaf_vector":"1"}},{"base_weights":[-2.016887E-2,2.6260893E0,-5.3126307E0,4.736456E0,9.7214985E-1,-3.797674E0,-8.5840645E0,3.3958905E0,5.5399075E0,1.9247522E0,7.705573E-2,-2.4067743E0,-5.259472E0,-7.191424E0,-1.0956178E0,3.7513995E0,1.9797505E0,6.0961194E0,4.8551226E0,1.4348985E0,2.9998293E0,1.182838E0,-4.8797333E-1,-1.3580703E0,-3.261832E0,-4.6508994E0,-9.331132E-1,-6.461472E0,-8.795514E-1,4.950688E-1,3.5428607E-1,2.3971531E0,1.1546963E0,6.3344634E-1,4.2119784E0,4.9329242E-1,2.8789088E-1,1.7208048E0,2.8122923E-1,3.0355868E0,4.0930558E-2,1.5433414E0,-7.78333E-1,-1.4050658E-1,-2.2947342E0,-8.6528283E-1,-1.9079524E0,-2.544426E0,-3.742202E-1,-3.6891391E0,-5.347217E-1,-3.199172E-1,-6.585769E-1,2.4859829E-1,4.8793793E-2,2.2927856E-2,1.2243103E-1,4.3490234E-1,1.1466751E-1,1.8655865E-1,6.601771E-2,-3.63591E-2,5.8957785E-2,3.1034034E-1,1.2933521E-1,2.096604E-1,9.936076E-2,5.4618837E-3,-1.3811015E-1,-9.135183E-2,1.1308969E-2,-1.3162524E-1,-3.0819884E-1,-1.9436855E-2,-1.1367317E-1,-1.4142011E-1,-2.1898785E-1,-1.2581238E-1,-2.6832506E-1,-3.8459715E-1,-9.632816E-2],"categories":[],"categories_nodes":[],"categories_segments":[],"categories_sizes":[],"default_left":[0,0,0,0,0,0,0,0,0,0,0,0,0,0,0,0,0,0,0,0,0,0,0,0,0,0,0,0,0,0,0,0,0,0,0,0,0,0,0,0,0,0,0,0,0,0,0,0,0,0,0,0,0,0,0,0,0,0,0,0,0,0,0,0,0,0,0,0,0,0,0,0,0,0,0,0,0,0,0,0,0],"id":6,"left_children":[1,3,5,7,9,11,13,15,17,19,21,23,25,27,-1,29,31,33,35,37,39,41,43,45,47,49,-1,51,-1,-1,-1,53,55,-1,57,-1,-1,59,61,63,-1,65,67,69,71,73,75,77,-1,79,-1,-1,-1,-1,-1,-1,-1,-1,-1,-1,-1,-1,-1,-1,-1,-1,-1,-1,-1,-1,-1,-1,-1,-1,-1,-1,-1,-1,-1,-1,-1],"loss_changes":[1.5503726E4,2.5713242E3,1.7961943E3,3.3016113E2,3.537093E2,5.0377783E2,3.0441602E2,5.50011E1,4.6960938E1,1.0154828E2,1.34909E2,1.1393494E2,2.613838E2,3.2156982E1,0E0,6.9699707E0,6.530266E0,2.1370117E1,4.0527344E-1,4.5693817E1,4.5006714E0,5.2812866E1,8.945145E1,1.4878555E1,1.5290894E1,5.326953E1,0E0,1.6384277E0,0E0,0E0,0E0,1.6701126E0,4.2793274E-1,0E0,1.3143616E0,0E0,0E0,1.5967072E1,5.9804187E0,3.1934814E0,0E0,1.6773926E1,6.1003585E0,2.3823288E1,1.3660538E1,5.9711018E0,8.007126E-1,2.3383942E0,0E0,1.7242859E1,0E0,0E0,0E0,0E0,0E0,0E0,0E0,0E0,0E0,0E0,0E0,0E0,0E0,0E0,0E0,0E0,0E0,0E0,0E0,0E0,0E0,0E0,0E0,0E0,0E0,0E0,0E0,0E0,0E0,0E0,0E0],"parents":[2147483647,0,0,1,1,2,2,3,3,4,4,5,5,6,6,7,7,8,8,9,9,10,10,11,11,12,12,13,13,15,15,16,16,17,17,18,18,19,19,20,20,21,21,22,22,23,23,24,24,25,25,27,27,31,31,32,32,34,34,37,37,38,38,39,39,41,41,42,42,43,43,44,44,45,45,46,46,47,47,49,49],"right_children":[2,4,6,8,10,12,14,16,18,20,22,24,26,28,-1,30,32,34,36,38,40,42,44,46,48,50,-1,52,-1,-1,-1,54,56,-1,58,-1,-1,60,62,64,-1,66,68,70,72,74,76,78,-1,80,-1,-1,-1,-1,-1,-1,-1,-1,-1,-1,-1,-1,-1,-1,-1,-1,-1,-1,-1,-1,-1,-1,-1,-1,-1,-1,-1,-1,-1,-1,-1],"split_conditions":[3.54E1,4.9816046E0,9.18E1,7.1550956E0,5.2971416E0,5.657501E0,5.970149E0,1.65E1,4.470747E0,4.59512E0,1.58E1,5.47E1,6.2230406E0,1.219E2,-1.0956178E0,4.310638E0,4.903206E0,6.8E0,4.9508853E0,2.782E0,2.52E1,5.806661E0,5.7141585E0,4.49E1,5.4899993E0,6.48E1,-9.331132E-1,5.498139E0,-8.795514E-1,4.950688E-1,3.5428607E-1,2.61E1,4.539216E0,6.3344634E-1,4.414058E0,4.9329242E-1,2.8789088E-1,3.06E1,6.990267E1,9.9253645E0,4.0930558E-2,5.448305E0,5.840019E0,3.7400477E0,7.69702E0,5.32093E0,5.442374E0,2.615E0,-3.742202E-1,8.31536E1,-5.347217E-1,-3.199172E-1,-6.585769E-1,2.4859829E-1,4.8793793E-2,2.2927856E-2,1.2243103E-1,4.3490234E-1,1.1466751E-1,1.8655865E-1,6.601771E-2,-3.63591E-2,5.8957785E-2,3.1034034E-1,1.2933521E-1,2.096604E-1,9.936076E-2,5.4618837E-3,-1.3811015E-1,-9.135183E-2,1.1308969E-2,-1.3162524E-1,-3.0819884E-1,-1.9436855E-2,-1.1367317E-1,-1.4142011E-1,-2.1898785E-1,-1.2581238E-1,-2.6832506E-1,-3.8459715E-1,-9.632816E-2],"split_indices":[3,1,3,7,1,1,1,3,1,2,3,3,1,3,0,1,1,3,1,4,3,1,1,3,1,3,0,1,0,0,0,3,6,0,1,0,0,3,5,0,0,1,1,2,0,1,1,4,0,5,0,0,0,0,0,0,0,0,0,0,0,0,0,0,0,0,0,0,0,0,0,0,0,0,0,0,0,0,0,0,0],"split_type":[0,0,0,0,0,0,0,0,0,0,0,0,0,0,0,0,0,0,0,0,0,0,0,0,0,0,0,0,0,0,0,0,0,0,0,0,0,0,0,0,0,0,0,0,0,0,0,0,0,0,0,0,0,0,0,0,0,0,0,0,0,0,0,0,0,0,0,0,0,0,0,0,0,0,0,0,0,0,0,0,0],"sum_hessian":[1.105E3,7.37E2,3.68E2,3.23E2,4.14E2,2.53E2,1.15E2,1.23E2,2E2,2E2,2.14E2,1.31E2,1.22E2,7.5E1,4E1,9.7E1,2.6E1,1.06E2,9.4E1,1.39E2,6.1E1,7.2E1,1.42E2,6E1,7.1E1,1.08E2,1.4E1,5.5E1,2E1,1.1E1,8.6E1,1.6E1,1E1,9.2E1,1.4E1,8.9E1,5E0,1.11E2,2.8E1,6E1,1E0,6.1E1,1.1E1,1.2E2,2.2E1,3.3E1,2.7E1,3.1E1,4E1,4.8E1,6E1,3E0,5.2E1,1.5E1,1E0,1E0,9E0,1.3E1,1E0,9.7E1,1.4E1,9E0,1.9E1,5.7E1,3E0,2.9E1,3.2E1,5E0,6E0,2.9E1,9.1E1,1.1E1,1.1E1,1E1,2.3E1,1.2E1,1.5E1,4E0,2.7E1,4.5E1,3E0],"tree_param":{"num_deleted":"0","num_feature":"8","num_nodes":"81","size_leaf_vector":"1"}},{"base_weights":[-2.0408627E-2,2.368451E0,-4.798073E0,4.4641647E0,1.0095974E0,-3.252615E0,-7.42189E0,3.247207E0,5.0875783E0,1.8669882E0,6.775351E-2,-2.877252E0,-7.597121E-1,-6.1805425E0,-9.794825E0,3.5141997E0,2.128724E0,5.7806416E0,4.6809397E0,1.3514286E0,2.8124661E0,6.736388E-1,-7.9758567E-1,-1.4924679E0,-3.4726381E0,-4.7184854E0,-6.7786565E0,-8.324255E0,-1.1939967E0,3.957716E0,2.9464588E0,5.535075E-2,2.2585705E-1,6.136231E-1,4.4915038E-1,4.7011194E0,1.0893402E-1,1.5998373E0,2.7134475E-1,2.8858976E0,1.1044403E-1,1.0844857E0,-5.799527E-1,-8.088064E-2,-1.597687E0,-7.343674E-1,-2.1646063E0,-2.5404344E0,-3.9954062E0,-4.8925343E-1,-2.3640357E-1,-6.213037E-1,-8.6647886E-1,-5.891736E-1,-9.245928E-1,1.6698278E-1,4.030365E-1,1.9341965E-1,3.1074476E-1,1.326561E-1,4.7177696E-1,1.8376218E-1,9.60936E-2,-4.9603816E-2,4.8385873E-2,2.4904282E-1,3.236644E-1,1.707819E-1,5.465393E-2,-9.7741194E-2,5.4437764E-2,2.0205198E-2,-5.6366008E-2,-1.3049138E-1,-3.1368408E-1,-1.6475145E-2,-9.411087E-2,-1.4998232E-1,-2.406806E-1,-1.8754077E-1,-3.1622335E-1,-3.4105393E-1,-4.5958087E-1],"categories":[],"categories_nodes":[],"categories_segments":[],"categories_sizes":[],"default_left":[0,0,0,0,0,0,0,0,0,0,0,0,0,0,0,0,0,0,0,0,0,0,0,0,0,0,0,0,0,0,0,0,0,0,0,0,0,0,0,0,0,0,0,0,0,0,0,0,0,0,0,0,0,0,0,0,0,0,0,0,0,0,0,0,0,0,0,0,0,0,0,0,0,0,0,0,0,0,0,0,0,0,0],"id":7,"left_children":[1,3,5,7,9,11,13,15,17,19,21,23,-1,25,27,29,31,33,35,37,39,41,43,45,47,49,51,53,-1,55,57,-1,-1,-1,-1,59,-1,61,63,65,-1,67,69,71,73,75,77,79,81,-1,-1,-1,-1,-1,-1,-1,-1,-1,-1,-1,-1,-1,-1,-1,-1,-1,-1,-1,-1,-1,-1,-1,-1,-1,-1,-1,-1,-1,-1,-1,-1,-1,-1],"loss_changes":[1.263433E4,2.097146E3,1.4721553E3,2.0349268E2,3.6245364E2,3.5974023E2,3.4006885E2,2.2680664E1,2.6488281E1,1.1074994E2,1.1326099E2,1.7372974E2,0E0,4.8466797E1,4.2564453E1,8.48291E0,3.2496567E0,2.6936035E0,3.9387207E0,4.088443E1,7.097412E0,6.603827E1,5.0906647E1,3.255014E1,6.3436035E1,7.276001E-1,1.3375977E1,1.2784912E1,0E0,2.5091553E-1,3.451233E-1,0E0,0E0,0E0,0E0,7.0874023E-1,0E0,1.7224304E1,5.1324E0,2.758667E0,0E0,3.1257324E1,1.4832095E1,6.6704025E0,1.4832855E1,3.7311363E0,2.0255737E0,1.763977E1,1.7685547E1,0E0,0E0,0E0,0E0,0E0,0E0,0E0,0E0,0E0,0E0,0E0,0E0,0E0,0E0,0E0,0E0,0E0,0E0,0E0,0E0,0E0,0E0,0E0,0E0,0E0,0E0,0E0,0E0,0E0,0E0,0E0,0E0,0E0,0E0],"parents":[2147483647,0,0,1,1,2,2,3,3,4,4,5,5,6,6,7,7,8,8,9,9,10,10,11,11,13,13,14,14,15,15,16,16,17,17,18,18,19,19,20,20,21,21,22,22,23,23,24,24,25,25,26,26,27,27,29,29,30,30,35,35,37,37,38,38,39,39,41,41,42,42,43,43,44,44,45,45,46,46,47,47,48,48],"right_children":[2,4,6,8,10,12,14,16,18,20,22,24,-1,26,28,30,32,34,36,38,40,42,44,46,48,50,52,54,-1,56,58,-1,-1,-1,-1,60,-1,62,64,66,-1,68,70,72,74,76,78,80,82,-1,-1,-1,-1,-1,-1,-1,-1,-1,-1,-1,-1,-1,-1,-1,-1,-1,-1,-1,-1,-1,-1,-1,-1,-1,-1,-1,-1,-1,-1,-1,-1,-1,-1],"split_conditions":[3.54E1,4.905504E0,8.6E1,7.1550956E0,5.2971416E0,6.0547137E0,5.938744E0,2.344E0,4.3655415E0,4.5981455E0,2.21E1,5.4899993E0,-7.597121E-1,5.7070436E0,6.1389856E0,4.774229E0,8.05269E0,4.6E0,8.4E0,2.782E0,2.721E0,5.6439333E0,5.4514117E0,4.96E1,5.47E1,4.166831E0,1.38E2,1.186E2,-1.1939967E0,3.7565382E0,5.710207E0,5.535075E-2,2.2585705E-1,6.136231E-1,4.4915038E-1,8.978012E1,1.0893402E-1,2.34E1,6.784164E1,6.8663187E0,1.1044403E-1,1.746E0,4.603168E0,4.49732E0,6.036255E0,5.311727E0,5.422926E0,5.7457047E0,5.6849666E0,-4.8925343E-1,-2.3640357E-1,-6.213037E-1,-8.6647886E-1,-5.891736E-1,-9.245928E-1,1.6698278E-1,4.030365E-1,1.9341965E-1,3.1074476E-1,1.326561E-1,4.7177696E-1,1.8376218E-1,9.60936E-2,-4.9603816E-2,4.8385873E-2,2.4904282E-1,3.236644E-1,1.707819E-1,5.465393E-2,-9.7741194E-2,5.4437764E-2,2.0205198E-2,-5.6366008E-2,-1.3049138E-1,-3.1368408E-1,-1.6475145E-2,-9.411087E-2,-1.4998232E-1,-2.406806E-1,-1.8754077E-1,-3.1622335E-1,-3.4105393E-1,-4.5958087E-1],"split_indices":[3,1,3,7,1,1,1,4,1,2,3,1,0,1,1,1,0,3,3,4,4,1,1,3,3,6,3,3,0,2,7,0,0,0,0,5,0,3,5,7,0,4,2,6,7,1,1,1,1,0,0,0,0,0,0,0,0,0,0,0,0,0,0,0,0,0,0,0,0,0,0,0,0,0,0,0,0,0,0,0,0,0,0],"split_type":[0,0,0,0,0,0,0,0,0,0,0,0,0,0,0,0,0,0,0,0,0,0,0,0,0,0,0,0,0,0,0,0,0,0,0,0,0,0,0,0,0,0,0,0,0,0,0,0,0,0,0,0,0,0,0,0,0,0,0,0,0,0,0,0,0,0,0,0,0,0,0,0,0,0,0,0,0,0,0,0,0,0,0],"sum_hessian":[1.105E3,7.37E2,3.68E2,2.89E2,4.48E2,2.33E2,1.35E2,1E2,1.89E2,2.34E2,2.14E2,2.16E2,1.7E1,9.1E1,4.4E1,7.9E1,2.1E1,6.5E1,1.24E2,1.53E2,8.1E1,1.26E2,8.8E1,6.6E1,1.5E2,2.9E1,6.2E1,2.9E1,1.5E1,4.1E1,3.8E1,2E0,1.9E1,4.8E1,1.7E1,1.23E2,1E0,1.24E2,2.9E1,7.7E1,4E0,9.5E1,3.1E1,4.7E1,4.1E1,3.2E1,3.4E1,5.6E1,9.4E1,2.6E1,3E0,5.1E1,1.1E1,1E1,1.9E1,2E0,3.9E1,7E0,3.1E1,1E0,1.22E2,8.9E1,3.5E1,6E0,2.3E1,4E1,3.7E1,4.3E1,5.2E1,2.3E1,8E0,3E1,1.7E1,3.6E1,5E0,9E0,2.3E1,1.1E1,2.3E1,2.9E1,2.7E1,5.1E1,4.3E1],"tree_param":{"num_deleted":"0","num_feature":"8","num_nodes":"83","size_leaf_vector":"1"}},{"base_weights":[-2.1706082E-2,2.1367478E0,-4.338555E0,3.601877E0,5.4591304E-1,-2.9383173E0,-6.7158866E0,4.500508E0,2.6109147E0,9.304341E-1,-6.864529E-1,-2.6157668E0,-7.1695846E-1,-5.620359E0,-8.954578E0,4.9449477E0,3.710304E0,3.0934381E0,1.8939539E0,1.400875E0,2.0744579E-1,-1.8741433E-1,-1.6436511E0,-1.3769042E0,-3.1645465E0,-5.0900598E0,-7.2213954E-1,-7.9311514E0,-1.1939617E0,5.6221163E-1,4.547495E-1,4.0126677E0,3.0486572E0,2.103691E0,3.2922163E0,1.1522816E0,2.2714112E0,2.7974015E-1,1.545853E0,4.045236E-1,-6.799229E-1,-8.312783E-1,4.629122E-1,-1.0637838E0,-2.4958174E-1,-6.970118E-1,-1.9807775E0,-2.3353248E0,-3.6287682E0,-4.3718014E0,-5.7654965E-1,-5.568904E-1,-8.781811E-1,1.619967E-1,4.0800172E-1,3.2630706E-1,1.9392645E-1,2.2099946E-1,7.292049E-2,3.5230133E-1,2.6932225E-1,9.491984E-3,1.2299664E-1,2.3669086E-1,1.3466558E-1,4.115465E-2,-6.0434468E-2,2.2196598E-1,1.3728663E-1,5.2986026E-2,-9.3074225E-2,7.911936E-3,-7.686564E-2,2.101822E-2,-1.0570069E-1,2.4246918E-2,1.472545E-1,-2.1782016E-2,-1.5391108E-1,-1.4992676E-2,-8.879654E-2,-1.3623428E-1,-2.198395E-1,-1.6912621E-1,-2.8988594E-1,-3.082785E-1,-4.1669104E-1,-4.4898683E-1,-2.1867323E-1],"categories":[],"categories_nodes":[],"categories_segments":[],"categories_sizes":[],"default_left":[0,0,0,0,0,0,0,0,0,0,0,0,0,0,0,0,0,0,0,0,0,0,0,0,0,0,0,0,0,0,0,0,0,0,0,0,0,0,0,0,0,0,0,0,0,0,0,0,0,0,0,0,0,0,0,0,0,0,0,0,0,0,0,0,0,0,0,0,0,0,0,0,0,0,0,0,0,0,0,0,0,0,0,0,0,0,0,0,0],"id":8,"left_children":[1,3,5,7,9,11,13,15,17,19,21,23,-1,25,27,29,31,33,35,37,39,41,43,45,47,49,-1,51,-1,-1,-1,53,55,57,59,61,63,65,67,69,71,73,75,77,-1,79,81,83,85,87,-1,-1,-1,-1,-1,-1,-1,-1,-1,-1,-1,-1,-1,-1,-1,-1,-1,-1,-1,-1,-1,-1,-1,-1,-1,-1,-1,-1,-1,-1,-1,-1,-1,-1,-1,-1,-1,-1,-1],"loss_changes":[1.0314668E4,1.7181475E3,1.208605E3,3.3020557E2,1.6886276E2,3.0060864E2,2.8321875E2,5.189258E1,5.814209E1,9.188278E1,4.0294662E1,1.4453271E2,0E0,4.3051514E1,3.6668457E1,8.076172E0,2.9710693E0,1.4518799E1,1.8938812E1,2.6224152E1,1.9162159E1,2.4251955E1,1.1675148E1,2.6948624E1,4.9651855E1,1.0694458E1,0E0,2.1426514E1,0E0,0E0,0E0,1.2867432E0,3.3236694E-1,1.4568329E0,2.8156738E0,2.183197E0,1.2281799E0,2.5792758E0,1.3853851E1,1.5388001E1,1.4078665E0,7.0396957E0,6.097381E0,7.3048286E0,0E0,3.4187775E0,1.8499908E0,1.5785492E1,1.5067017E1,5.012207E-1,0E0,0E0,0E0,0E0,0E0,0E0,0E0,0E0,0E0,0E0,0E0,0E0,0E0,0E0,0E0,0E0,0E0,0E0,0E0,0E0,0E0,0E0,0E0,0E0,0E0,0E0,0E0,0E0,0E0,0E0,0E0,0E0,0E0,0E0,0E0,0E0,0E0,0E0,0E0],"parents":[2147483647,0,0,1,1,2,2,3,3,4,4,5,5,6,6,7,7,8,8,9,9,10,10,11,11,13,13,14,14,15,15,16,16,17,17,18,18,19,19,20,20,21,21,22,22,23,23,24,24,25,25,27,27,31,31,32,32,33,33,34,34,35,35,36,36,37,37,38,38,39,39,40,40,41,41,42,42,43,43,45,45,46,46,47,47,48,48,49,49],"right_children":[2,4,6,8,10,12,14,16,18,20,22,24,-1,26,28,30,32,34,36,38,40,42,44,46,48,50,-1,52,-1,-1,-1,54,56,58,60,62,64,66,68,70,72,74,76,78,-1,80,82,84,86,88,-1,-1,-1,-1,-1,-1,-1,-1,-1,-1,-1,-1,-1,-1,-1,-1,-1,-1,-1,-1,-1,-1,-1,-1,-1,-1,-1,-1,-1,-1,-1,-1,-1,-1,-1,-1,-1,-1,-1],"split_conditions":[3.54E1,5.086874E0,8.6E1,4.669862E0,5.5399055E0,6.1389856E0,5.970149E0,5.5E0,1.24E1,2.14E1,2.37E1,5.498139E0,-7.1695846E-1,1.219E2,6.2469163E0,4.350252E0,8.8E0,4.364372E0,5.591724E0,7.938534E0,3.613E0,5.4693046E0,5.723167E0,4.96E1,5.47E1,5.7657456E0,-7.2213954E-1,1.186E2,-1.1939617E0,5.6221163E-1,4.547495E-1,8.715209E0,4.571562E0,9.3E0,4.9508853E0,1.57E0,3.187E0,7.8572206E0,7.6E0,9.702488E1,5.2282114E0,5.600139E0,6.3295565E0,7.69702E0,-2.4958174E-1,5.311727E0,5.422926E0,5.7457047E0,5.6849666E0,4.166831E0,-5.7654965E-1,-5.568904E-1,-8.781811E-1,1.619967E-1,4.0800172E-1,3.2630706E-1,1.9392645E-1,2.2099946E-1,7.292049E-2,3.5230133E-1,2.6932225E-1,9.491984E-3,1.2299664E-1,2.3669086E-1,1.3466558E-1,4.115465E-2,-6.0434468E-2,2.2196598E-1,1.3728663E-1,5.2986026E-2,-9.3074225E-2,7.911936E-3,-7.686564E-2,2.101822E-2,-1.0570069E-1,2.4246918E-2,1.472545E-1,-2.1782016E-2,-1.5391108E-1,-1.4992676E-2,-8.879654E-2,-1.3623428E-1,-2.198395E-1,-1.6912621E-1,-2.8988594E-1,-3.082785E-1,-4.1669104E-1,-4.4898683E-1,-2.1867323E-1],"split_indices":[3,1,3,1,1,1,1,3,3,3,3,1,0,3,1,1,3,2,7,0,4,7,1,3,3,1,0,3,0,0,0,0,1,3,1,4,4,0,3,5,1,1,7,0,0,1,1,1,1,6,0,0,0,0,0,0,0,0,0,0,0,0,0,0,0,0,0,0,0,0,0,0,0,0,0,0,0,0,0,0,0,0,0,0,0,0,0,0,0],"split_type":[0,0,0,0,0,0,0,0,0,0,0,0,0,0,0,0,0,0,0,0,0,0,0,0,0,0,0,0,0,0,0,0,0,0,0,0,0,0,0,0,0,0,0,0,0,0,0,0,0,0,0,0,0,0,0,0,0,0,0,0,0,0,0,0,0,0,0,0,0,0,0,0,0,0,0,0,0,0,0,0,0,0,0,0,0,0,0,0,0],"sum_hessian":[1.105E3,7.37E2,3.68E2,3.83E2,3.54E2,2.33E2,1.35E2,1.99E2,1.84E2,2.7E2,8.4E1,2.18E2,1.5E1,9.3E1,4.2E1,1.24E2,7.5E1,1.08E2,7.6E1,1.63E2,1.07E2,5.6E1,2.8E1,6.8E1,1.5E2,7.3E1,2E1,3.4E1,8E0,4.1E1,8.3E1,4.8E1,2.7E1,2E1,8.8E1,2.7E1,4.9E1,1.9E1,1.44E2,8.8E1,1.9E1,2.8E1,2.8E1,1.8E1,1E1,3.3E1,3.5E1,5.6E1,9.4E1,3.9E1,3.4E1,1.1E1,2.3E1,2E0,4.6E1,2.1E1,6E0,1.8E1,2E0,6E1,2.8E1,2E0,2.5E1,4.3E1,6E0,1.7E1,2E0,2.7E1,1.17E2,8.1E1,7E0,2E0,1.7E1,5E0,2.3E1,2.4E1,4E0,7E0,1.1E1,9E0,2.4E1,1.1E1,2.4E1,2.8E1,2.8E1,5E1,4.4E1,3.6E1,3E0],"tree_param":{"num_deleted":"0","num_feature":"8","num_nodes":"89","size_leaf_vector":"1"}},{"base_weights":[-2.273347E-2,1.9277056E0,-3.9235501E0,3.2508721E0,4.9101937E-1,-2.7952864E0,-6.3602347E0,2.464491E0,4.175953E0,9.174453E-1,-4.3033037E-1,-2.5195167E0,-7.0212495E-1,-5.787903E0,-9.8280746E-1,2.8741405E0,1.7766026E0,4.6492577E0,3.5953114E0,1.6673867E0,4.885204E-1,8.1266746E-2,-1.3307269E0,-1.7178991E0,-3.361609E0,-5.1520395E0,-8.2944614E-1,2.0648544E-1,3.0378952E0,1.1208096E0,2.0173342E0,5.125633E-1,4.0739617E-1,3.8068092E-1,2.9167622E-1,1.0338207E0,1.8385264E0,3.0694176E-2,8.328312E-1,2.720225E-1,-1.5026264E0,-1.0683167E0,-2.6834005E-1,-9.283792E-1,-2.3249736E0,-2.632217E0,-3.8934054E0,-4.2712933E-1,-5.665521E-1,3.2791266E-1,2.4994063E-1,1.7113997E-1,8.2886845E-2,-2.041626E-3,2.0534424E-1,9.904044E-4,1.4427273E-1,7.4753575E-2,1.9132473E-1,9.163253E-2,-2.5942935E-2,1.216584E-1,3.7564596E-3,-2.190415E-2,6.396233E-2,-7.64415E-2,-2.0497341E-1,-1.712865E-1,-4.670349E-2,-5.9714444E-2,-1.3776664E-1,-1.9861905E-1,-3.020887E-1,-2.7424723E-1,-6.2353518E-2,-2.885965E-1,-4.11337E-1],"categories":[],"categories_nodes":[],"categories_segments":[],"categories_sizes":[],"default_left":[0,0,0,0,0,0,0,0,0,0,0,0,0,0,0,0,0,0,0,0,0,0,0,0,0,0,0,0,0,0,0,0,0,0,0,0,0,0,0,0,0,0,0,0,0,0,0,0,0,0,0,0,0,0,0,0,0,0,0,0,0,0,0,0,0,0,0,0,0,0,0,0,0,0,0,0,0],"id":9,"left_children":[1,3,5,7,9,11,13,15,17,19,21,23,-1,25,-1,27,29,31,33,35,37,39,41,43,45,47,-1,-1,49,51,53,-1,-1,-1,-1,55,57,59,61,63,65,67,-1,69,71,73,75,-1,-1,-1,-1,-1,-1,-1,-1,-1,-1,-1,-1,-1,-1,-1,-1,-1,-1,-1,-1,-1,-1,-1,-1,-1,-1,-1,-1,-1,-1],"loss_changes":[8.422349E3,1.401323E3,9.966846E2,2.6905566E2,1.3986984E2,2.7831946E2,1.7334814E2,5.4070312E1,3.1378174E1,7.735091E1,5.2160496E1,1.5623364E2,0E0,1.1983716E2,0E0,1.0955444E1,1.0526428E1,4.605591E0,8.079834E-1,7.6409607E0,2.4565422E1,2.2464727E1,1.1686447E1,5.7753723E1,3.4746826E1,1.3789307E1,0E0,0E0,5.5736084E0,2.7194958E0,4.30954E0,0E0,0E0,0E0,0E0,8.778118E0,4.1131287E0,1.7709806E1,2.7115833E1,1.2054131E1,1.6642017E0,1.3152012E1,0E0,7.5112305E0,1.0503387E1,9.806274E0,2.53302E0,0E0,0E0,0E0,0E0,0E0,0E0,0E0,0E0,0E0,0E0,0E0,0E0,0E0,0E0,0E0,0E0,0E0,0E0,0E0,0E0,0E0,0E0,0E0,0E0,0E0,0E0,0E0,0E0,0E0,0E0],"parents":[2147483647,0,0,1,1,2,2,3,3,4,4,5,5,6,6,7,7,8,8,9,9,10,10,11,11,13,13,15,15,16,16,17,17,18,18,19,19,20,20,21,21,22,22,23,23,24,24,25,25,28,28,29,29,30,30,35,35,36,36,37,37,38,38,39,39,40,40,41,41,43,43,44,44,45,45,46,46],"right_children":[2,4,6,8,10,12,14,16,18,20,22,24,-1,26,-1,28,30,32,34,36,38,40,42,44,46,48,-1,-1,50,52,54,-1,-1,-1,-1,56,58,60,62,64,66,68,-1,70,72,74,76,-1,-1,-1,-1,-1,-1,-1,-1,-1,-1,-1,-1,-1,-1,-1,-1,-1,-1,-1,-1,-1,-1,-1,-1,-1,-1,-1,-1,-1,-1],"split_conditions":[3.54E1,5.086874E0,9.18E1,7.457995E0,5.4585423E0,6.2230406E0,6.1389856E0,1.24E1,4.4607916E0,1.73E1,2.19E1,5.6439333E0,-7.0212495E-1,1.445E2,-9.8280746E-1,4.364372E0,8.1525955E0,1.65E0,5.4E0,8.7928986E1,4.9089994E0,5.9127135E0,6.036255E0,5.32E1,6.48E1,5.78476E0,-8.2944614E-1,2.0648544E-1,4.8693633E0,4.903206E0,1.57E0,5.125633E-1,4.0739617E-1,3.8068092E-1,2.9167622E-1,1.59E0,4.200205E0,2.059E0,5.319178E0,5.5348196E0,7.783015E0,3.910021E0,-2.6834005E-1,4.49E1,4.92E0,8.31536E1,3.767E0,-4.2712933E-1,-5.665521E-1,3.2791266E-1,2.4994063E-1,1.7113997E-1,8.2886845E-2,-2.041626E-3,2.0534424E-1,9.904044E-4,1.4427273E-1,7.4753575E-2,1.9132473E-1,9.163253E-2,-2.5942935E-2,1.216584E-1,3.7564596E-3,-2.190415E-2,6.396233E-2,-7.64415E-2,-2.0497341E-1,-1.712865E-1,-4.670349E-2,-5.9714444E-2,-1.3776664E-1,-1.9861905E-1,-3.020887E-1,-2.7424723E-1,-6.2353518E-2,-2.885965E-1,-4.11337E-1],"split_indices":[3,1,3,7,1,1,1,3,1,3,3,1,0,3,0,2,0,4,3,5,7,1,7,3,3,1,0,0,1,1,4,0,0,0,0,4,2,4,1,7,0,2,0,3,4,5,4,0,0,0,0,0,0,0,0,0,0,0,0,0,0,0,0,0,0,0,0,0,0,0,0,0,0,0,0,0,0],"split_type":[0,0,0,0,0,0,0,0,0,0,0,0,0,0,0,0,0,0,0,0,0,0,0,0,0,0,0,0,0,0,0,0,0,0,0,0,0,0,0,0,0,0,0,0,0,0,0,0,0,0,0,0,0,0,0,0,0,0,0,0,0,0,0,0,0,0,0,0,0,0,0,0,0,0,0,0,0],"sum_hessian":[1.105E3,7.37E2,3.68E2,3.83E2,3.54E2,2.53E2,1.15E2,2.09E2,1.74E2,2.42E2,1.12E2,2.39E2,1.4E1,1.01E2,1.4E1,1.29E2,8E1,9.2E1,8.2E1,8.7E1,1.55E2,7.2E1,4E1,1.24E2,1.15E2,8.3E1,1.8E1,2.4E1,1.05E2,2.3E1,5.7E1,4.6E1,4.6E1,5.9E1,2.3E1,2E1,6.7E1,6.7E1,8.8E1,6.5E1,7E0,3.5E1,5E0,5.5E1,6.9E1,5.1E1,6.4E1,3.4E1,4.9E1,6.9E1,3.6E1,6E0,1.7E1,1E0,5.6E1,6E0,1.4E1,5E0,6.2E1,1.6E1,5.1E1,5.9E1,2.9E1,2.8E1,3.7E1,4E0,3E0,1.6E1,1.9E1,3.3E1,2.2E1,4.9E1,2E1,4.8E1,3E0,1.4E1,5E1],"tree_param":{"num_deleted":"0","num_feature":"8","num_nodes":"77","size_leaf_vector":"1"}},{"base_weights":[-2.2749713E-2,1.7386082E0,-3.545404E0,2.9331648E0,4.4157064E-1,-2.8051763E0,-6.612765E0,3.671519E0,2.119089E0,8.2818055E-1,-3.9371952E-1,-1.653189E0,-3.7562015E0,-5.512339E0,-7.8548517E0,4.165771E0,3.1846647E0,1.4969275E0,2.4847791E0,1.2629286E0,2.2499952E-1,6.9859646E-2,-1.2095137E0,-9.9988055E-1,-2.3408408E0,-3.476145E0,-7.693451E-1,-3.566545E-1,-5.808046E-1,-3.212817E-1,-8.064205E-1,3.786479E-1,4.7460546E0,3.3986602E0,2.474796E0,1.7836525E0,1.0456148E0,2.2076018E0,2.8975503E0,1.5053241E0,8.4452605E-1,4.3782717E-1,-3.6071125E-1,2.45456E-1,-1.3875427E0,-8.448822E-1,-2.0202997E0,-5.3918546E-1,-1.3758743E0,-1.871222E0,-2.7277987E0,-2.4869492E0,-3.9278069E0,2.0254238E-1,4.8527995E-1,1.3743159E-1,3.4338495E-1,2.660769E-1,1.5367682E-1,2.0562592E-1,1.3809723E-1,1.4523706E-1,8.316869E-2,2.567246E-1,1.9668029E-1,1.5524992E-1,3.0336756E-1,1.1126256E-1,1.7436604E-1,1.4705129E-1,5.660565E-2,2.1684607E-2,1.0893575E-1,-1.6136628E-2,-7.63621E-2,-3.239396E-2,5.183726E-2,-7.032639E-2,-1.8960057E-1,-1.4366613E-1,-3.7054826E-2,-1.0137253E-1,-2.3968711E-1,1.1269597E-2,-6.828992E-2,-9.690046E-2,-1.5897927E-1,-2.6335144E-2,-1.9132383E-1,-1.9146812E-1,-2.9868194E-1,-2.5943193E-1,-5.767689E-2,-3.4456223E-1,-4.3987155E-1],"categories":[],"categories_nodes":[],"categories_segments":[],"categories_sizes":[],"default_left":[0,0,0,0,0,0,0,0,0,0,0,0,0,0,0,0,0,0,0,0,0,0,0,0,0,0,0,0,0,0,0,0,0,0,0,0,0,0,0,0,0,0,0,0,0,0,0,0,0,0,0,0,0,0,0,0,0,0,0,0,0,0,0,0,0,0,0,0,0,0,0,0,0,0,0,0,0,0,0,0,0,0,0,0,0,0,0,0,0,0,0,0,0,0,0],"id":10,"left_children":[1,3,5,7,9,11,13,15,17,19,21,23,25,27,29,31,33,35,37,39,41,43,45,47,49,51,-1,-1,-1,-1,-1,-1,53,55,57,59,61,63,65,67,69,71,73,75,77,79,81,83,85,87,89,91,93,-1,-1,-1,-1,-1,-1,-1,-1,-1,-1,-1,-1,-1,-1,-1,-1,-1,-1,-1,-1,-1,-1,-1,-1,-1,-1,-1,-1,-1,-1,-1,-1,-1,-1,-1,-1,-1,-1,-1,-1,-1,-1],"loss_changes":[6.8685127E3,1.1421506E3,8.1928125E2,2.2303345E2,1.1496674E2,3.2136523E2,5.3746094E1,3.4858887E1,3.8371338E1,6.3438187E1,4.281942E1,5.9206512E1,1.5298877E2,2.8760986E0,4.2176514E0,3.1584473E0,7.5394287E0,7.322586E0,6.76062E0,1.3028763E1,1.2997439E1,1.902234E1,1.0414249E1,1.1729881E1,6.889374E0,5.9036255E1,0E0,0E0,0E0,0E0,0E0,0E0,4.510498E-2,8.371582E-1,7.9556274E-1,1.7708435E0,1.4025764E0,1.2726746E0,3.1632996E0,6.2962646E0,8.580795E0,1.0705945E1,2.1256826E0,1.0424157E1,1.4500504E0,7.8886776E0,2.1187973E0,3.262227E0,1.85392E0,1.7255173E0,1.4420929E0,8.963623E0,8.458496E0,0E0,0E0,0E0,0E0,0E0,0E0,0E0,0E0,0E0,0E0,0E0,0E0,0E0,0E0,0E0,0E0,0E0,0E0,0E0,0E0,0E0,0E0,0E0,0E0,0E0,0E0,0E0,0E0,0E0,0E0,0E0,0E0,0E0,0E0,0E0,0E0,0E0,0E0,0E0,0E0,0E0,0E0],"parents":[2147483647,0,0,1,1,2,2,3,3,4,4,5,5,6,6,7,7,8,8,9,9,10,10,11,11,12,12,13,13,14,14,15,15,16,16,17,17,18,18,19,19,20,20,21,21,22,22,23,23,24,24,25,25,32,32,33,33,34,34,35,35,36,36,37,37,38,38,39,39,40,40,41,41,42,42,43,43,44,44,45,45,46,46,47,47,48,48,49,49,50,50,51,51,52,52],"right_children":[2,4,6,8,10,12,14,16,18,20,22,24,26,28,30,32,34,36,38,40,42,44,46,48,50,52,-1,-1,-1,-1,-1,-1,54,56,58,60,62,64,66,68,70,72,74,76,78,80,82,84,86,88,90,92,94,-1,-1,-1,-1,-1,-1,-1,-1,-1,-1,-1,-1,-1,-1,-1,-1,-1,-1,-1,-1,-1,-1,-1,-1,-1,-1,-1,-1,-1,-1,-1,-1,-1,-1,-1,-1,-1,-1,-1,-1,-1,-1],"split_conditions":[3.54E1,5.086874E0,1.088E2,4.669862E0,5.4585423E0,5.657501E0,5.986849E0,4.4E0,6.236353E0,2.14E1,2.19E1,5.9E1,6.3039002E0,5.6921115E0,9.976561E0,9.989259E1,8.8E0,1.95E1,9.79164E1,1.73E1,3.187E0,5.9127135E0,5.723167E0,4.49E1,4.218E0,6.52E1,-7.693451E-1,-3.566545E-1,-5.808046E-1,-3.212817E-1,-8.064205E-1,3.786479E-1,1.00347185E1,8.715209E0,4.571562E0,4.5971375E0,7.074857E1,4.5882382E0,6.6739674E0,9.302688E1,8.277222E1,8.331465E0,4.218E0,8.113723E0,7.783015E0,3.910021E0,2.453E0,5.288691E0,5.442374E0,5.3498797E0,5.4899993E0,8.31536E1,5.78476E0,2.0254238E-1,4.8527995E-1,1.3743159E-1,3.4338495E-1,2.660769E-1,1.5367682E-1,2.0562592E-1,1.3809723E-1,1.4523706E-1,8.316869E-2,2.567246E-1,1.9668029E-1,1.5524992E-1,3.0336756E-1,1.1126256E-1,1.7436604E-1,1.4705129E-1,5.660565E-2,2.1684607E-2,1.0893575E-1,-1.6136628E-2,-7.63621E-2,-3.239396E-2,5.183726E-2,-7.032639E-2,-1.8960057E-1,-1.4366613E-1,-3.7054826E-2,-1.0137253E-1,-2.3968711E-1,1.1269597E-2,-6.828992E-2,-9.690046E-2,-1.5897927E-1,-2.6335144E-2,-1.9132383E-1,-1.9146812E-1,-2.9868194E-1,-2.5943193E-1,-5.767689E-2,-3.4456223E-1,-4.3987155E-1],"split_indices":[3,1,3,1,1,1,1,3,7,3,3,3,1,1,5,5,3,3,5,3,4,1,1,3,4,3,0,0,0,0,0,0,0,0,1,6,5,6,7,5,5,0,4,0,0,2,4,1,1,1,1,5,1,0,0,0,0,0,0,0,0,0,0,0,0,0,0,0,0,0,0,0,0,0,0,0,0,0,0,0,0,0,0,0,0,0,0,0,0,0,0,0,0,0,0],"split_type":[0,0,0,0,0,0,0,0,0,0,0,0,0,0,0,0,0,0,0,0,0,0,0,0,0,0,0,0,0,0,0,0,0,0,0,0,0,0,0,0,0,0,0,0,0,0,0,0,0,0,0,0,0,0,0,0,0,0,0,0,0,0,0,0,0,0,0,0,0,0,0,0,0,0,0,0,0,0,0,0,0,0,0,0,0,0,0,0,0,0,0,0,0,0,0],"sum_hessian":[1.105E3,7.37E2,3.68E2,3.83E2,3.54E2,2.98E2,7E1,1.99E2,1.84E2,2.42E2,1.12E2,1.36E2,1.62E2,4E1,3E1,9.5E1,1.04E2,7E1,1.14E2,1.4E2,1.02E2,7.2E1,4E1,7.1E1,6.5E1,1.53E2,9E0,7E0,3.3E1,2E0,2.8E1,6.2E1,3.3E1,7.7E1,2.7E1,4.1E1,2.9E1,7.2E1,4.2E1,8.7E1,5.3E1,7.5E1,2.7E1,6.5E1,7E0,2.9E1,1.1E1,3.3E1,3.8E1,3.2E1,3.3E1,5E1,1.03E2,2E0,3.1E1,2E0,7.5E1,2.1E1,6E0,2.2E1,1.9E1,8E0,2.1E1,2.5E1,4.7E1,5E0,3.7E1,3.5E1,5.2E1,1.5E1,3.8E1,5.7E1,1.8E1,1.9E1,8E0,2.1E1,4.4E1,4E0,3E0,1.2E1,1.7E1,4E0,7E0,6E0,2.7E1,1.5E1,2.3E1,1E0,3.1E1,1E1,2.3E1,4.7E1,3E0,5.5E1,4.8E1],"tree_param":{"num_deleted":"0","num_feature":"8","num_nodes":"95","size_leaf_vector":"1"}},{"base_weights":[-2.2047902E-2,1.5691063E0,-3.2042966E0,2.970957E0,6.601846E-1,-2.1540546E0,-4.9877696E0,2.4046354E0,3.5523565E0,1.2478155E0,1.4819815E-2,-1.8418323E0,-4.690561E0,-4.518197E0,-8.227176E0,1.8171988E0,2.735266E0,4.119853E-1,3.1527627E0,8.8403803E-1,1.8793752E0,7.1790314E-1,-3.442005E-1,-8.4133434E-1,-2.1914198E0,-3.7093275E0,-6.3120157E-1,-4.043904E0,-6.8515664E-1,-4.1073772E-1,-8.8619465E-1,1.8672156E0,2.9448954E-2,2.8853694E-1,2.1772406E0,2.3196235E0,3.3514392E-1,1.0673773E0,1.3990587E-1,1.9404993E0,7.5115845E-2,9.4618815E-1,-5.213947E-1,-1.0584297E-1,-1.5216464E0,-2.5431392E-1,-1.2136912E0,-2.4623466E0,-1.451983E0,-1.0201683E-1,-3.8075036E-1,-3.3747144E0,-4.5452818E-1,2.0594303E-1,1.3164167E-1,2.346252E-1,1.2791647E-1,1.4839564E-1,2.5717697E-1,1.17356755E-1,2.9715633E-2,-1.9556722E-2,3.620766E-2,2.3686469E-1,1.7479613E-1,1.2005172E-1,4.292027E-2,-7.700062E-3,-1.1281464E-1,4.8413672E-3,-7.951868E-2,-8.4486865E-2,-2.1280184E-1,-4.5190193E-2,1.726513E-2,-8.804151E-2,-1.4610247E-1,-2.0781644E-1,-2.7722362E-1,-9.483784E-2,-1.7967874E-1,-2.2128335E-1,-3.55177E-1],"categories":[],"categories_nodes":[],"categories_segments":[],"categories_sizes":[],"default_left":[0,0,0,0,0,0,0,0,0,0,0,0,0,0,0,0,0,0,0,0,0,0,0,0,0,0,0,0,0,0,0,0,0,0,0,0,0,0,0,0,0,0,0,0,0,0,0,0,0,0,0,0,0,0,0,0,0,0,0,0,0,0,0,0,0,0,0,0,0,0,0,0,0,0,0,0,0,0,0,0,0,0,0],"id":11,"left_children":[1,3,5,7,9,11,13,15,17,19,21,23,25,27,29,31,33,-1,35,37,39,41,43,45,47,49,-1,51,-1,-1,-1,53,-1,-1,55,57,-1,59,61,63,-1,65,67,69,71,73,75,77,79,-1,-1,81,-1,-1,-1,-1,-1,-1,-1,-1,-1,-1,-1,-1,-1,-1,-1,-1,-1,-1,-1,-1,-1,-1,-1,-1,-1,-1,-1,-1,-1,-1,-1],"loss_changes":[5.605202E3,9.383782E2,6.804214E2,8.694287E1,1.7025859E2,1.766781E2,1.6970264E2,2.4163147E1,1.8985352E1,5.2329163E1,5.4517662E1,7.16062E1,1.6362305E1,1.0620361E2,5.442749E0,3.7913208E0,1.5914307E0,0E0,6.626648E0,2.0451393E1,4.4040527E0,2.1145996E1,3.9972336E1,1.1931885E1,2.7476318E1,8.678894E-1,0E0,1.9219238E1,0E0,0E0,0E0,3.1118622E0,0E0,0E0,6.4160156E-1,3.9780426E-1,0E0,9.547852E0,2.3813117E0,2.4544983E0,0E0,7.636772E0,3.1487744E0,1.2798802E1,8.051205E0,2.018375E0,1.5163269E0,7.572937E0,5.936348E0,0E0,0E0,2.0149536E0,0E0,0E0,0E0,0E0,0E0,0E0,0E0,0E0,0E0,0E0,0E0,0E0,0E0,0E0,0E0,0E0,0E0,0E0,0E0,0E0,0E0,0E0,0E0,0E0,0E0,0E0,0E0,0E0,0E0,0E0,0E0],"parents":[2147483647,0,0,1,1,2,2,3,3,4,4,5,5,6,6,7,7,8,8,9,9,10,10,11,11,12,12,13,13,14,14,15,15,16,16,18,18,19,19,20,20,21,21,22,22,23,23,24,24,25,25,27,27,31,31,34,34,35,35,37,37,38,38,39,39,41,41,42,42,43,43,44,44,45,45,46,46,47,47,48,48,51,51],"right_children":[2,4,6,8,10,12,14,16,18,20,22,24,26,28,30,32,34,-1,36,38,40,42,44,46,48,50,-1,52,-1,-1,-1,54,-1,-1,56,58,-1,60,62,64,-1,66,68,70,72,74,76,78,80,-1,-1,82,-1,-1,-1,-1,-1,-1,-1,-1,-1,-1,-1,-1,-1,-1,-1,-1,-1,-1,-1,-1,-1,-1,-1,-1,-1,-1,-1,-1,-1,-1,-1],"split_conditions":[3.54E1,4.905504E0,8.6E1,7.7166214E0,5.2971416E0,5.986849E0,6.1389856E0,6.5165253E0,4.3918285E0,4.59512E0,1.58E1,5.467182E0,6.3039002E0,1.445E2,1.740284E1,2.61E1,8.8E0,4.119853E-1,9.8079956E1,2.687E0,2.721E0,5.806661E0,5.7042656E0,4.49E1,5.805937E1,4.49E1,-6.3120157E-1,5.78476E0,-6.8515664E-1,-4.1073772E-1,-8.8619465E-1,9.7208855E1,2.9448954E-2,2.8853694E-1,2.309E0,8.442133E0,3.3514392E-1,3.06E1,7.7336164E0,6.4E0,7.5115845E-2,1.857E0,5.9127135E0,3.459E0,7.9972405E0,4.3121076E0,5.4176726E0,4.307E0,5.657501E0,-1.0201683E-1,-3.8075036E-1,4.538E0,-4.5452818E-1,2.0594303E-1,1.3164167E-1,2.346252E-1,1.2791647E-1,1.4839564E-1,2.5717697E-1,1.17356755E-1,2.9715633E-2,-1.9556722E-2,3.620766E-2,2.3686469E-1,1.7479613E-1,1.2005172E-1,4.292027E-2,-7.700062E-3,-1.1281464E-1,4.8413672E-3,-7.951868E-2,-8.4486865E-2,-2.1280184E-1,-4.5190193E-2,1.726513E-2,-8.804151E-2,-1.4610247E-1,-2.0781644E-1,-2.7722362E-1,-9.483784E-2,-1.7967874E-1,-2.2128335E-1,-3.55177E-1],"split_indices":[3,1,3,7,1,1,1,7,1,2,3,1,1,3,5,3,3,0,5,4,4,1,1,3,5,3,0,1,0,0,0,5,0,0,4,7,0,3,0,3,0,4,1,4,0,7,1,4,1,0,0,4,0,0,0,0,0,0,0,0,0,0,0,0,0,0,0,0,0,0,0,0,0,0,0,0,0,0,0,0,0,0,0],"split_type":[0,0,0,0,0,0,0,0,0,0,0,0,0,0,0,0,0,0,0,0,0,0,0,0,0,0,0,0,0,0,0,0,0,0,0,0,0,0,0,0,0,0,0,0,0,0,0,0,0,0,0,0,0,0,0,0,0,0,0,0,0,0,0,0,0,0,0,0,0,0,0,0,0,0,0,0,0,0,0,0,0,0,0],"sum_hessian":[1.105E3,7.37E2,3.68E2,2.89E2,4.48E2,2.33E2,1.35E2,1.49E2,1.4E2,2.34E2,2.14E2,2.09E2,2.4E1,1.2E2,1.5E1,5.6E1,9.3E1,5.4E1,8.6E1,1.5E2,8.4E1,7.2E1,1.42E2,5.5E1,1.54E2,1.7E1,7E0,1.02E2,1.8E1,3E0,1.2E1,5.4E1,2E0,7E1,2.3E1,1.9E1,6.7E1,1.2E2,3E1,7.9E1,5E0,6.1E1,1.1E1,1.19E2,2.3E1,2.2E1,3.3E1,1.11E2,4.3E1,1E0,1.6E1,4.7E1,5.5E1,3.8E1,1.6E1,1.8E1,5E0,6E0,1.3E1,1.05E2,1.5E1,1.2E1,1.8E1,2.1E1,5.8E1,4E1,2.1E1,7E0,4E0,9.8E1,2.1E1,1.2E1,1.1E1,1.5E1,7E0,1.6E1,1.7E1,5.3E1,5.8E1,1.9E1,2.4E1,8E0,3.9E1],"tree_param":{"num_deleted":"0","num_feature":"8","num_nodes":"83","size_leaf_vector":"1"}},{"base_weights":[-2.2245355E-2,1.4155718E0,-2.8978193E0,2.5683627E0,5.1215047E-1,-2.2849638E0,-5.437904E0,3.138847E0,1.9926534E0,8.5790163E-1,-2.9685545E-1,-1.4438547E0,-3.1802976E0,-4.9950695E0,-8.30084E-1,3.8325557E-1,2.8698921E0,1.4727606E0,2.3455694E0,4.02131E-2,1.1070614E0,1.20406814E-1,-9.918951E-1,-8.183851E-1,-1.9178722E0,-2.956506E0,-6.61519E-1,-4.2915382E0,-6.3282615E-1,3.0055027E0,2.1672947E0,1.7291637E-1,9.199562E-1,2.412309E0,1.5303795E0,7.096504E-1,-2.2836609E-1,1.3736626E0,7.714276E-1,4.751002E-1,-4.1539598E-1,-7.828943E-1,-2.074343E0,-3.7323052E-1,-1.11329E0,-1.6249232E0,-2.8326526E-1,-2.3973007E0,-3.4728634E0,-1.1469708E-1,-4.336938E-1,2.2416349E-1,3.1381464E-1,6.283913E-2,2.2086816E-1,1.6686758E-2,1.109355E-1,2.6089117E-1,2.0761187E-1,-5.832672E-3,1.7133832E-1,1.2751113E-1,-2.9792977E-2,-8.111995E-2,2.0824645E-3,2.0762765E-1,1.2413917E-1,1.8518887E-1,6.1879467E-2,6.008041E-2,-7.261139E-2,7.1810107E-3,-9.070902E-2,-8.9651436E-2,2.1447297E-2,-7.9147846E-2,-2.4291931E-1,-7.806641E-2,-1.508522E-2,-1.0095098E-1,-2.0913354E-1,-1.9531368E-1,-8.8357694E-2,-2.9613397E-1,-2.1237393E-1,-1.5815698E-1,-3.5348684E-1],"categories":[],"categories_nodes":[],"categories_segments":[],"categories_sizes":[],"default_left":[0,0,0,0,0,0,0,0,0,0,0,0,0,0,0,0,0,0,0,0,0,0,0,0,0,0,0,0,0,0,0,0,0,0,0,0,0,0,0,0,0,0,0,0,0,0,0,0,0,0,0,0,0,0,0,0,0,0,0,0,0,0,0,0,0,0,0,0,0,0,0,0,0,0,0,0,0,0,0,0,0,0,0,0,0,0,0],"id":12,"left_children":[1,3,5,7,9,11,13,15,17,19,21,23,25,27,-1,-1,29,31,33,35,37,39,41,43,45,47,-1,49,-1,51,53,-1,55,57,59,61,63,65,67,69,71,73,75,77,79,81,-1,83,85,-1,-1,-1,-1,-1,-1,-1,-1,-1,-1,-1,-1,-1,-1,-1,-1,-1,-1,-1,-1,-1,-1,-1,-1,-1,-1,-1,-1,-1,-1,-1,-1,-1,-1,-1,-1,-1,-1],"loss_changes":[4.576914E3,7.6727893E2,5.619988E2,1.0015796E2,1.16336296E2,2.2057715E2,4.8551025E1,1.9039795E1,2.6635986E1,5.924237E1,3.6371155E1,4.4681854E1,9.113489E1,3.287036E1,0E0,0E0,4.919739E0,8.189362E0,1.531189E0,1.2568048E1,1.889441E1,1.5210964E1,9.008934E0,8.642689E0,1.8979736E1,3.1233154E1,0E0,1.4500732E0,0E0,2.8950195E0,7.696533E-2,0E0,3.2381E0,3.3395386E-1,3.0073261E0,1.1774835E1,7.2787266E0,8.853607E0,1.5510368E1,7.684121E0,7.730943E0,4.838436E0,1.2639179E0,2.5097618E0,2.0503464E0,1.5063339E1,0E0,4.357544E0,2.5009155E0,0E0,0E0,0E0,0E0,0E0,0E0,0E0,0E0,0E0,0E0,0E0,0E0,0E0,0E0,0E0,0E0,0E0,0E0,0E0,0E0,0E0,0E0,0E0,0E0,0E0,0E0,0E0,0E0,0E0,0E0,0E0,0E0,0E0,0E0,0E0,0E0,0E0,0E0],"parents":[2147483647,0,0,1,1,2,2,3,3,4,4,5,5,6,6,7,7,8,8,9,9,10,10,11,11,12,12,13,13,16,16,17,17,18,18,19,19,20,20,21,21,22,22,23,23,24,24,25,25,27,27,29,29,30,30,32,32,33,33,34,34,35,35,36,36,37,37,38,38,39,39,40,40,41,41,42,42,43,43,44,44,45,45,47,47,48,48],"right_children":[2,4,6,8,10,12,14,16,18,20,22,24,26,28,-1,-1,30,32,34,36,38,40,42,44,46,48,-1,50,-1,52,54,-1,56,58,60,62,64,66,68,70,72,74,76,78,80,82,-1,84,86,-1,-1,-1,-1,-1,-1,-1,-1,-1,-1,-1,-1,-1,-1,-1,-1,-1,-1,-1,-1,-1,-1,-1,-1,-1,-1,-1,-1,-1,-1,-1,-1,-1,-1,-1,-1,-1,-1],"split_conditions":[3.54E1,4.9816046E0,1.088E2,4.5624924E0,5.442374E0,6.64E1,6.2230406E0,3.5E0,6.5165253E0,4.8132153E0,2.14E1,5.581227E0,6.342602E0,1.445E2,-8.30084E-1,3.8325557E-1,7.7E0,2.269E0,1.03E1,2.202E0,1.73E1,5.6439333E0,3.2E1,4.72E1,5.928985E0,5.7165933E0,-6.61519E-1,5.498139E0,-6.3282615E-1,9.8079956E1,8.1E0,1.7291637E-1,8.594224E1,4.7792497E0,4.6425333E0,3.06E1,2.59E0,5.8E0,7.074857E1,3.311E0,1.39E1,4.593777E0,2.415E0,5.66934E1,5.017E0,3.583519E0,-2.8326526E-1,1.871103E1,2.3478334E0,-1.1469708E-1,-4.336938E-1,2.2416349E-1,3.1381464E-1,6.283913E-2,2.2086816E-1,1.6686758E-2,1.109355E-1,2.6089117E-1,2.0761187E-1,-5.832672E-3,1.7133832E-1,1.2751113E-1,-2.9792977E-2,-8.111995E-2,2.0824645E-3,2.0762765E-1,1.2413917E-1,1.8518887E-1,6.1879467E-2,6.008041E-2,-7.261139E-2,7.1810107E-3,-9.070902E-2,-8.9651436E-2,2.1447297E-2,-7.9147846E-2,-2.4291931E-1,-7.806641E-2,-1.508522E-2,-1.0095098E-1,-2.0913354E-1,-1.9531368E-1,-8.8357694E-2,-2.9613397E-1,-2.1237393E-1,-1.5815698E-1,-3.5348684E-1],"split_indices":[3,1,3,1,1,3,1,3,7,7,3,1,1,3,0,0,3,4,3,4,3,1,3,3,1,1,0,1,0,5,3,0,5,1,1,3,4,3,5,4,3,6,4,5,4,2,0,5,7,0,0,0,0,0,0,0,0,0,0,0,0,0,0,0,0,0,0,0,0,0,0,0,0,0,0,0,0,0,0,0,0,0,0,0,0,0,0],"split_type":[0,0,0,0,0,0,0,0,0,0,0,0,0,0,0,0,0,0,0,0,0,0,0,0,0,0,0,0,0,0,0,0,0,0,0,0,0,0,0,0,0,0,0,0,0,0,0,0,0,0,0,0,0,0,0,0,0,0,0,0,0,0,0,0,0,0,0,0,0,0,0,0,0,0,0,0,0,0,0,0,0,0,0,0,0,0,0],"sum_hessian":[1.105E3,7.37E2,3.68E2,3.23E2,4.14E2,2.98E2,7E1,1.6E2,1.63E2,2.9E2,1.24E2,1.55E2,1.43E2,6.3E1,7E0,4.1E1,1.19E2,6.8E1,9.5E1,6.8E1,2.22E2,7.8E1,4.6E1,6.8E1,8.7E1,1.36E2,7E0,4.4E1,1.9E1,9.7E1,2.2E1,4.5E1,2.3E1,8.6E1,9E0,1.9E1,4.9E1,1.22E2,1E2,4.7E1,3.1E1,4E1,6E0,2.8E1,4E1,6.8E1,1.9E1,6.8E1,6.8E1,1E0,4.3E1,1.7E1,8E1,1E0,2.1E1,5E0,1.8E1,5E1,3.6E1,1E0,8E0,1.2E1,7E0,1.4E1,3.5E1,1.7E1,1.05E2,1.1E1,8.9E1,4.3E1,4E0,1.6E1,1.5E1,3.6E1,4E0,2E0,4E0,9E0,1.9E1,3.8E1,2E0,4.6E1,2.2E1,1.9E1,4.9E1,3E0,6.5E1],"tree_param":{"num_deleted":"0","num_feature":"8","num_nodes":"87","size_leaf_vector":"1"}},{"base_weights":[-2.2202283E-2,1.2770643E0,-2.6206753E0,2.163827E0,3.1426448E-1,-2.0653372E0,-4.9224415E0,2.7645998E0,1.6145439E0,5.034401E-1,-6.835911E-1,-1.2029271E0,-2.7775142E0,-4.514019E0,-7.5745153E-1,3.0464902E0,2.2472172E0,1.9571506E0,1.1882657E0,8.174856E-1,3.4699686E-2,6.505316E-2,-9.773317E-1,-7.122695E-1,-1.7199638E0,-2.4918878E0,-5.083961E0,-3.9285188E0,-5.9016657E-1,2.752989E-1,3.4910765E0,2.603127E0,1.9330022E-1,1.3134533E-1,2.067614E0,7.3450035E-1,1.3824016E0,9.6918255E-2,9.3383145E-1,2.8952888E-1,-4.178316E-1,3.0457482E-1,-5.707138E-1,-5.002372E-1,-1.453269E0,-1.0750518E0,-4.2754275E-1,-1.3668088E0,-2.0121446E0,-1.771708E0,-2.8231697E0,-3.5783577E-1,-6.0246795E-1,-2.848939E-1,-4.2092416E-1,2.2066282E-1,3.643856E-1,2.826067E-1,1.7936979E-1,2.3661838E-1,1.855452E-1,1.2056259E-1,4.7517866E-2,1.7797278E-1,1.0023391E-1,-1.0186132E-2,4.837087E-2,1.3595161E-1,7.3993325E-2,-8.609301E-3,8.3217576E-2,-2.235985E-3,-7.1749575E-2,7.513275E-2,9.541626E-3,-1.4286041E-2,-6.419621E-2,-1.15187526E-1,-2.9143566E-2,-8.22421E-2,-2.0018749E-1,-7.137026E-2,-1.5877129E-1,-8.9014314E-2,-2.3467993E-2,-1.4271608E-1,-2.8756967E-2,-2.0853613E-1,-5.6045275E-2,-1.01514675E-1,-1.9896428E-1,-2.8860325E-1,-1.3677941E-1],"categories":[],"categories_nodes":[],"categories_segments":[],"categories_sizes":[],"default_left":[0,0,0,0,0,0,0,0,0,0,0,0,0,0,0,0,0,0,0,0,0,0,0,0,0,0,0,0,0,0,0,0,0,0,0,0,0,0,0,0,0,0,0,0,0,0,0,0,0,0,0,0,0,0,0,0,0,0,0,0,0,0,0,0,0,0,0,0,0,0,0,0,0,0,0,0,0,0,0,0,0,0,0,0,0,0,0,0,0,0,0,0,0],"id":13,"left_children":[1,3,5,7,9,11,13,15,17,19,21,23,25,27,-1,29,31,33,35,37,39,41,43,45,47,49,51,53,-1,-1,55,57,-1,-1,59,61,63,65,67,69,71,73,75,77,79,81,83,85,87,89,91,-1,-1,-1,-1,-1,-1,-1,-1,-1,-1,-1,-1,-1,-1,-1,-1,-1,-1,-1,-1,-1,-1,-1,-1,-1,-1,-1,-1,-1,-1,-1,-1,-1,-1,-1,-1,-1,-1,-1,-1,-1,-1],"loss_changes":[3.7373235E3,6.29406E2,4.6151074E2,1.2225427E2,6.7357475E1,1.8030115E2,4.2713257E1,1.9697632E1,2.7321716E1,4.3986168E1,1.2598288E1,3.353018E1,9.471301E1,2.881311E1,0E0,5.3951416E0,2.572754E0,5.1769104E0,7.177185E0,1.4915962E1,1.4074474E1,2.7625844E0,8.5827675E0,6.977524E0,4.0599976E0,3.0069824E1,2.5194702E0,2.5551147E0,0E0,0E0,2.0135498E-1,1.640625E-1,0E0,0E0,1.5007629E0,3.0923023E0,7.8806763E0,2.0483081E0,1.1705139E1,1.59703865E1,5.198339E0,1.1430591E0,6.0708046E-2,2.6576896E0,5.27536E0,4.609585E0,3.5382733E0,1.7390175E0,2.445053E0,6.059387E0,5.1098633E0,0E0,0E0,0E0,0E0,0E0,0E0,0E0,0E0,0E0,0E0,0E0,0E0,0E0,0E0,0E0,0E0,0E0,0E0,0E0,0E0,0E0,0E0,0E0,0E0,0E0,0E0,0E0,0E0,0E0,0E0,0E0,0E0,0E0,0E0,0E0,0E0,0E0,0E0,0E0,0E0,0E0,0E0],"parents":[2147483647,0,0,1,1,2,2,3,3,4,4,5,5,6,6,7,7,8,8,9,9,10,10,11,11,12,12,13,13,15,15,16,16,17,17,18,18,19,19,20,20,21,21,22,22,23,23,24,24,25,25,26,26,27,27,30,30,31,31,34,34,35,35,36,36,37,37,38,38,39,39,40,40,41,41,42,42,43,43,44,44,45,45,46,46,47,47,48,48,49,49,50,50],"right_children":[2,4,6,8,10,12,14,16,18,20,22,24,26,28,-1,30,32,34,36,38,40,42,44,46,48,50,52,54,-1,-1,56,58,-1,-1,60,62,64,66,68,70,72,74,76,78,80,82,84,86,88,90,92,-1,-1,-1,-1,-1,-1,-1,-1,-1,-1,-1,-1,-1,-1,-1,-1,-1,-1,-1,-1,-1,-1,-1,-1,-1,-1,-1,-1,-1,-1,-1,-1,-1,-1,-1,-1,-1,-1,-1,-1,-1,-1],"split_conditions":[3.54E1,5.086874E0,1.088E2,4.6120267E0,5.6291127E0,5.657501E0,6.2230406E0,5.5E0,1.04E1,2.14E1,1.39E1,5.9E1,6.2230406E0,1.497E2,-7.5745153E-1,9.989259E1,4.350252E0,4.364372E0,5.591724E0,4.1239033E0,5.371786E0,5.840019E0,5.723167E0,5.2707047E1,4.218E0,6.48E1,6.342602E0,5.78476E0,-5.9016657E-1,2.752989E-1,7.490269E0,1.0587555E1,1.9330022E-1,1.3134533E-1,4.7792497E0,4.903206E0,4.589985E0,8.113723E0,5.221944E0,4.8132153E0,8.330959E1,5.733202E0,8.8E0,3.3638415E0,7.9972405E0,7.3717957E0,3.3809946E0,3.974E0,7.397386E0,2.937E0,7.783015E0,-3.5783577E-1,-6.0246795E-1,-2.848939E-1,-4.2092416E-1,2.2066282E-1,3.643856E-1,2.826067E-1,1.7936979E-1,2.3661838E-1,1.855452E-1,1.2056259E-1,4.7517866E-2,1.7797278E-1,1.0023391E-1,-1.0186132E-2,4.837087E-2,1.3595161E-1,7.3993325E-2,-8.609301E-3,8.3217576E-2,-2.235985E-3,-7.1749575E-2,7.513275E-2,9.541626E-3,-1.4286041E-2,-6.419621E-2,-1.15187526E-1,-2.9143566E-2,-8.22421E-2,-2.0018749E-1,-7.137026E-2,-1.5877129E-1,-8.9014314E-2,-2.3467993E-2,-1.4271608E-1,-2.8756967E-2,-2.0853613E-1,-5.6045275E-2,-1.01514675E-1,-1.9896428E-1,-2.8860325E-1,-1.3677941E-1],"split_indices":[3,1,3,1,1,1,1,3,3,3,3,3,1,3,0,5,1,2,7,2,1,1,1,5,4,3,1,1,0,0,7,0,0,0,1,1,6,0,1,7,5,1,3,2,0,0,2,4,0,4,0,0,0,0,0,0,0,0,0,0,0,0,0,0,0,0,0,0,0,0,0,0,0,0,0,0,0,0,0,0,0,0,0,0,0,0,0,0,0,0,0,0,0],"split_type":[0,0,0,0,0,0,0,0,0,0,0,0,0,0,0,0,0,0,0,0,0,0,0,0,0,0,0,0,0,0,0,0,0,0,0,0,0,0,0,0,0,0,0,0,0,0,0,0,0,0,0,0,0,0,0,0,0,0,0,0,0,0,0,0,0,0,0,0,0,0,0,0,0,0,0,0,0,0,0,0,0,0,0,0,0,0,0,0,0,0,0,0,0],"sum_hessian":[1.105E3,7.37E2,3.68E2,3.83E2,3.54E2,2.98E2,7E1,1.81E2,2.02E2,2.98E2,5.6E1,1.36E2,1.62E2,6.3E1,7E0,1.14E2,6.7E1,1.1E2,9.2E1,1.78E2,1.2E2,1.6E1,4E1,7.1E1,6.5E1,1.46E2,1.6E1,4.7E1,1.6E1,7.3E1,4.1E1,2.8E1,3.9E1,1.8E1,9.2E1,2.9E1,6.3E1,2.5E1,1.53E2,7.7E1,4.3E1,1.2E1,4E0,2.1E1,1.9E1,3E1,4.1E1,3.2E1,3.3E1,4.8E1,9.8E1,8E0,8E0,1.2E1,3.5E1,6E0,3.5E1,2E1,8E0,3.4E1,5.8E1,9E0,2E1,2.9E1,3.4E1,1.7E1,8E0,4.6E1,1.07E2,4.6E1,3.1E1,1.9E1,2.4E1,3E0,9E0,1E0,3E0,4E0,1.7E1,1E1,9E0,1.9E1,1.1E1,1.1E1,3E1,3E1,2E0,3.1E1,2E0,1.2E1,3.6E1,9.3E1,5E0],"tree_param":{"num_deleted":"0","num_feature":"8","num_nodes":"93","size_leaf_vector":"1"}},{"base_weights":[-2.1947857E-2,1.1006126E0,-2.4805186E0,1.9517617E0,2.2616307E-1,-1.9644134E0,-4.4591184E0,2.496467E0,1.4562315E0,4.154324E-1,-7.580216E-1,-1.1874576E0,-2.5682917E0,-4.082866E0,-6.911747E-1,3.1308744E0,2.2776875E0,1.766421E0,1.0744522E0,8.132894E-1,7.331219E-2,2.7650198E-2,-1.0622051E0,-7.492293E-1,-1.5545754E0,-2.3610313E0,-5.337466E-1,-3.550371E0,-5.3462136E-1,3.2262608E-1,1.7416093E-1,2.4018657E0,1.6996282E0,1.1890186E-1,1.865391E0,6.8044996E-1,1.2485087E0,1.4502666E0,6.885816E-1,-2.1634635E-1,6.8816197E-1,2.806285E-1,-5.250778E-1,-5.335529E-1,-1.4076737E0,-4.3464538E-1,-9.5850486E-1,-1.2353247E0,-1.8187137E0,-1.5761514E0,-2.5762959E0,-2.5859603E-1,-3.8000088E0,1.7408097E-1,2.5182018E-1,2.1188521E-1,1.3490121E-1,2.1363261E-1,1.6730501E-1,5.1157176E-2,1.2988472E-1,1.6076891E-1,9.04968E-2,8.7257005E-2,1.6484733E-1,1.2231338E-1,4.9724557E-2,1.4727575E-2,-3.5497203E-2,9.411053E-2,1.1593925E-2,6.949768E-2,8.682633E-3,-1.3571548E-2,-5.758072E-2,-6.31429E-2,6.1410904E-2,-7.356449E-2,-1.6654842E-1,-5.9179652E-2,5.3834725E-2,-7.1598105E-2,-1.2951986E-1,-1.319512E-1,-4.9997408E-2,-1.1891341E-1,-2.0314912E-1,-1.7302701E-1,1.2306214E-3,-2.2364269E-1,-2.918856E-1,-2.8501868E-1,-4.2129436E-1],"categories":[],"categories_nodes":[],"categories_segments":[],"categories_sizes":[],"default_left":[0,0,0,0,0,0,0,0,0,0,0,0,0,0,0,0,0,0,0,0,0,0,0,0,0,0,0,0,0,0,0,0,0,0,0,0,0,0,0,0,0,0,0,0,0,0,0,0,0,0,0,0,0,0,0,0,0,0,0,0,0,0,0,0,0,0,0,0,0,0,0,0,0,0,0,0,0,0,0,0,0,0,0,0,0,0,0,0,0,0,0,0,0],"id":14,"left_children":[1,3,5,7,9,11,13,15,17,19,21,23,25,27,-1,29,31,33,35,37,39,41,43,45,47,49,-1,51,-1,-1,-1,53,55,-1,57,59,61,63,65,67,69,71,73,75,77,79,81,83,85,87,89,-1,91,-1,-1,-1,-1,-1,-1,-1,-1,-1,-1,-1,-1,-1,-1,-1,-1,-1,-1,-1,-1,-1,-1,-1,-1,-1,-1,-1,-1,-1,-1,-1,-1,-1,-1,-1,-1,-1,-1,-1,-1],"loss_changes":[3.055173E3,5.652166E2,3.4558472E2,1.0028308E2,7.035467E1,1.2691504E2,3.7299683E1,1.8129517E1,2.226056E1,4.2952686E1,1.4607662E1,1.8623703E1,7.6358826E1,2.4073364E1,0E0,2.1182251E-1,5.895569E0,4.125183E0,5.5968475E0,1.0599037E1,3.0603382E1,2.6642594E0,7.284771E0,3.4018059E0,3.3188324E0,2.0607056E1,0E0,1.7294922E0,0E0,0E0,0E0,4.229553E0,1.2572632E0,0E0,1.2722168E0,2.5729952E0,6.4422455E0,1.1951675E0,1.2074417E1,5.9499393E0,7.8515873E0,9.835787E-1,4.036665E-2,2.5220127E0,3.2794495E0,4.1412644E0,1.8489723E0,1.383213E0,2.138939E0,8.344856E0,6.628296E0,0E0,2.1119995E0,0E0,0E0,0E0,0E0,0E0,0E0,0E0,0E0,0E0,0E0,0E0,0E0,0E0,0E0,0E0,0E0,0E0,0E0,0E0,0E0,0E0,0E0,0E0,0E0,0E0,0E0,0E0,0E0,0E0,0E0,0E0,0E0,0E0,0E0,0E0,0E0,0E0,0E0,0E0,0E0],"parents":[2147483647,0,0,1,1,2,2,3,3,4,4,5,5,6,6,7,7,8,8,9,9,10,10,11,11,12,12,13,13,15,15,16,16,17,17,18,18,19,19,20,20,21,21,22,22,23,23,24,24,25,25,27,27,31,31,32,32,34,34,35,35,36,36,37,37,38,38,39,39,40,40,41,41,42,42,43,43,44,44,45,45,46,46,47,47,48,48,49,49,50,50,52,52],"right_children":[2,4,6,8,10,12,14,16,18,20,22,24,26,28,-1,30,32,34,36,38,40,42,44,46,48,50,-1,52,-1,-1,-1,54,56,-1,58,60,62,64,66,68,70,72,74,76,78,80,82,84,86,88,90,-1,92,-1,-1,-1,-1,-1,-1,-1,-1,-1,-1,-1,-1,-1,-1,-1,-1,-1,-1,-1,-1,-1,-1,-1,-1,-1,-1,-1,-1,-1,-1,-1,-1,-1,-1,-1,-1,-1,-1,-1,-1],"split_conditions":[3.86E1,5.086874E0,1.088E2,4.6120267E0,5.6439333E0,5.657501E0,6.2230406E0,3.5E0,1.04E1,2.173E0,1.41E1,5.9E1,6.3039002E0,1.497E2,-6.911747E-1,1.857E0,7.7E0,4.364372E0,5.591724E0,6.4E0,5.3909206E0,5.840019E0,5.723167E0,4.72E1,4.218E0,5.9E1,-5.337466E-1,5.78476E0,-5.3462136E-1,3.2262608E-1,1.7416093E-1,9.8079956E1,9.9253645E0,1.1890186E-1,4.7792497E0,4.597619E0,4.589985E0,9.246321E0,4.3694477E0,5.26946E0,5.4176726E0,5.733202E0,8.8E0,5.7208886E0,7.670792E0,5.6326194E0,7.397386E0,3.873E0,5.4899993E0,8.100652E1,5.78476E0,-2.5859603E-1,5.508E0,1.7408097E-1,2.5182018E-1,2.1188521E-1,1.3490121E-1,2.1363261E-1,1.6730501E-1,5.1157176E-2,1.2988472E-1,1.6076891E-1,9.04968E-2,8.7257005E-2,1.6484733E-1,1.2231338E-1,4.9724557E-2,1.4727575E-2,-3.5497203E-2,9.411053E-2,1.1593925E-2,6.949768E-2,8.682633E-3,-1.3571548E-2,-5.758072E-2,-6.31429E-2,6.1410904E-2,-7.356449E-2,-1.6654842E-1,-5.9179652E-2,5.3834725E-2,-7.1598105E-2,-1.2951986E-1,-1.319512E-1,-4.9997408E-2,-1.1891341E-1,-2.0314912E-1,-1.7302701E-1,1.2306214E-3,-2.2364269E-1,-2.918856E-1,-2.8501868E-1,-4.2129436E-1],"split_indices":[3,1,3,1,1,1,1,3,3,4,3,3,1,3,0,4,3,2,7,3,7,1,1,3,4,3,0,1,0,0,0,5,0,0,1,6,6,0,2,1,1,1,3,1,0,1,0,4,1,5,1,0,4,0,0,0,0,0,0,0,0,0,0,0,0,0,0,0,0,0,0,0,0,0,0,0,0,0,0,0,0,0,0,0,0,0,0,0,0,0,0,0,0],"split_type":[0,0,0,0,0,0,0,0,0,0,0,0,0,0,0,0,0,0,0,0,0,0,0,0,0,0,0,0,0,0,0,0,0,0,0,0,0,0,0,0,0,0,0,0,0,0,0,0,0,0,0,0,0,0,0,0,0,0,0,0,0,0,0,0,0,0,0,0,0,0,0,0,0,0,0,0,0,0,0,0,0,0,0,0,0,0,0,0,0,0,0,0,0],"sum_hessian":[1.105E3,7.59E2,3.46E2,3.84E2,3.75E2,2.76E2,7E1,1.81E2,2.03E2,3.15E2,6E1,1.22E2,1.54E2,6.3E1,7E0,4.3E1,1.38E2,1.1E2,9.3E1,1.45E2,1.7E2,1.7E1,4.3E1,5.7E1,6.5E1,1.45E2,9E0,4.7E1,1.6E1,3.9E1,4E0,1.11E2,2.7E1,1.8E1,9.2E1,3E1,6.3E1,2.2E1,1.23E2,1.16E2,5.4E1,1.2E1,5E0,1.8E1,2.5E1,2.4E1,3.3E1,3.2E1,3.3E1,3.3E1,1.12E2,1.2E1,3.5E1,1.9E1,9.2E1,1E1,1.7E1,3.4E1,5.8E1,2.5E1,5E0,2.9E1,3.4E1,7E0,1.5E1,3.1E1,9.2E1,3.2E1,8.4E1,3.7E1,1.7E1,3E0,9E0,1E0,4E0,1.7E1,1E0,8E0,1.7E1,2.1E1,3E0,2.1E1,1.2E1,2.8E1,4E0,1E1,2.3E1,3E1,3E0,6E1,5.2E1,1.3E1,2.2E1],"tree_param":{"num_deleted":"0","num_feature":"8","num_nodes":"93","size_leaf_vector":"1"}},{"base_weights":[-2.1241218E-2,9.9380964E-1,-2.2443461E0,1.7623036E0,2.0427775E-1,-1.79096E0,-4.1123633E0,2.3156645E0,1.3585106E0,4.7953117E-1,-3.5897544E-1,-1.074488E0,-2.333948E0,-3.771905E0,-6.491737E-1,2.8554196E0,2.107453E0,1.6559293E0,1.0150402E0,4.6041217E-2,7.4877787E-1,-1.05341915E-2,-9.704493E-1,-6.7786473E-1,-1.4067556E0,-2.0923054E0,-4.2292957E0,-2.9653773E0,-4.366371E0,2.945164E-1,1.6022782E-1,2.207612E0,1.5890602E0,1.0924851E-1,1.752059E0,-1.9207191E-1,1.0517075E0,5.736734E-1,-1.3283508E-1,-4.053192E-1,8.2219416E-1,-3.7241644E-1,3.0951372E-1,-2.606539E-1,-1.2506583E0,-9.281947E-1,-4.4546556E-1,-1.1173068E0,-1.646316E0,-1.7040858E0,-2.495429E0,-2.6782545E-1,-4.831841E-1,-8.178749E-2,-3.012864E-1,-2.8539556E-1,-4.736186E-1,1.618769E-1,2.3112117E-1,1.711464E-1,8.061142E-2,2.9633332E-2,1.76377E-1,-2.7970633E-2,3.541565E-3,1.19398944E-1,6.942611E-2,9.348245E-2,-4.885472E-2,-5.4365816E-3,-7.734108E-2,2.439995E-2,-7.1845576E-2,1.0444844E-1,5.695386E-2,-2.6987776E-2,-1.478742E-1,8.7734036E-2,1.7473241E-2,-8.664484E-2,4.6891894E-2,-7.936616E-2,-1.6072047E-1,-5.8144357E-2,-1.3797015E-1,-5.478668E-4,-6.173962E-2,-1.16664246E-1,-2.3506928E-2,-1.7331676E-1,-5.6163788E-2,-1.7747407E-1,1.1384964E-3,-1.5878077E-1,-2.5735527E-1],"categories":[],"categories_nodes":[],"categories_segments":[],"categories_sizes":[],"default_left":[0,0,0,0,0,0,0,0,0,0,0,0,0,0,0,0,0,0,0,0,0,0,0,0,0,0,0,0,0,0,0,0,0,0,0,0,0,0,0,0,0,0,0,0,0,0,0,0,0,0,0,0,0,0,0,0,0,0,0,0,0,0,0,0,0,0,0,0,0,0,0,0,0,0,0,0,0,0,0,0,0,0,0,0,0,0,0,0,0,0,0,0,0,0,0],"id":15,"left_children":[1,3,5,7,9,11,13,15,17,19,21,23,25,27,-1,29,31,33,35,37,39,41,43,45,47,49,51,53,55,-1,-1,57,59,-1,61,63,65,67,69,71,73,75,77,79,81,83,85,87,89,91,93,-1,-1,-1,-1,-1,-1,-1,-1,-1,-1,-1,-1,-1,-1,-1,-1,-1,-1,-1,-1,-1,-1,-1,-1,-1,-1,-1,-1,-1,-1,-1,-1,-1,-1,-1,-1,-1,-1,-1,-1,-1,-1,-1,-1],"loss_changes":[2.4979907E3,4.607704E2,2.8652087E2,8.287976E1,5.8466194E1,1.0681122E2,2.9789062E1,1.2076111E1,2.1303955E1,2.949461E1,2.6409554E1,1.5255966E1,6.3972473E1,1.6298767E1,0E0,4.486084E-3,2.7225342E0,4.5314026E0,4.937996E0,9.325531E0,1.3551056E1,9.38084E0,8.624111E0,2.9607582E0,2.73703E0,1.8127136E1,2.9468384E0,4.932251E-1,4.9404907E0,0E0,0E0,2.2370605E0,8.2458115E-1,0E0,1.1821289E0,8.964893E-2,4.460312E0,1.0047258E1,3.6776004E0,2.208557E0,7.661072E0,3.911685E0,3.1375937E0,6.5938907E0,3.9385185E0,3.4249134E0,2.417328E0,1.1621094E0,2.2295837E0,9.231888E0,7.3535156E-1,0E0,0E0,0E0,0E0,0E0,0E0,0E0,0E0,0E0,0E0,0E0,0E0,0E0,0E0,0E0,0E0,0E0,0E0,0E0,0E0,0E0,0E0,0E0,0E0,0E0,0E0,0E0,0E0,0E0,0E0,0E0,0E0,0E0,0E0,0E0,0E0,0E0,0E0,0E0,0E0,0E0,0E0,0E0,0E0],"parents":[2147483647,0,0,1,1,2,2,3,3,4,4,5,5,6,6,7,7,8,8,9,9,10,10,11,11,12,12,13,13,15,15,16,16,17,17,18,18,19,19,20,20,21,21,22,22,23,23,24,24,25,25,26,26,27,27,28,28,31,31,32,32,34,34,35,35,36,36,37,37,38,38,39,39,40,40,41,41,42,42,43,43,44,44,45,45,46,46,47,47,48,48,49,49,50,50],"right_children":[2,4,6,8,10,12,14,16,18,20,22,24,26,28,-1,30,32,34,36,38,40,42,44,46,48,50,52,54,56,-1,-1,58,60,-1,62,64,66,68,70,72,74,76,78,80,82,84,86,88,90,92,94,-1,-1,-1,-1,-1,-1,-1,-1,-1,-1,-1,-1,-1,-1,-1,-1,-1,-1,-1,-1,-1,-1,-1,-1,-1,-1,-1,-1,-1,-1,-1,-1,-1,-1,-1,-1,-1,-1,-1,-1,-1,-1,-1,-1],"split_conditions":[3.86E1,5.086874E0,1.095E2,4.5624924E0,5.4585423E0,5.657501E0,6.2469163E0,3.5E0,9.4E0,8.167002E0,2.37E1,5.9E1,6.2230406E0,1.335E2,-6.491737E-1,1.857E0,7.7E0,4.364372E0,1.57E0,2.12E0,4.8132153E0,5.4693046E0,7.69702E0,5.0318077E1,4.218E0,8.29E1,3.226E0,5.498139E0,5.74E0,2.945164E-1,1.6022782E-1,9.8079956E1,7.334695E0,1.0924851E-1,8.625786E1,8.525117E0,1.99E1,2.88E1,5.1779466E0,5.1653056E0,5.2700467E0,5.9573593E0,6.1E0,3.637586E0,2.782E0,7.2808495E0,6.413237E1,3.974E0,4.1560655E0,8.100652E1,3.767E0,-2.6782545E-1,-4.831841E-1,-8.178749E-2,-3.012864E-1,-2.8539556E-1,-4.736186E-1,1.618769E-1,2.3112117E-1,1.711464E-1,8.061142E-2,2.9633332E-2,1.76377E-1,-2.7970633E-2,3.541565E-3,1.19398944E-1,6.942611E-2,9.348245E-2,-4.885472E-2,-5.4365816E-3,-7.734108E-2,2.439995E-2,-7.1845576E-2,1.0444844E-1,5.695386E-2,-2.6987776E-2,-1.478742E-1,8.7734036E-2,1.7473241E-2,-8.664484E-2,4.6891894E-2,-7.936616E-2,-1.6072047E-1,-5.8144357E-2,-1.3797015E-1,-5.478668E-4,-6.173962E-2,-1.16664246E-1,-2.3506928E-2,-1.7331676E-1,-5.6163788E-2,-1.7747407E-1,1.1384964E-3,-1.5878077E-1,-2.5735527E-1],"split_indices":[3,1,3,1,1,1,1,3,3,0,3,3,1,3,0,4,3,2,4,4,7,7,0,5,4,3,4,1,4,0,0,5,7,0,5,0,3,3,7,1,1,1,3,2,4,0,5,4,7,5,4,0,0,0,0,0,0,0,0,0,0,0,0,0,0,0,0,0,0,0,0,0,0,0,0,0,0,0,0,0,0,0,0,0,0,0,0,0,0,0,0,0,0,0,0],"split_type":[0,0,0,0,0,0,0,0,0,0,0,0,0,0,0,0,0,0,0,0,0,0,0,0,0,0,0,0,0,0,0,0,0,0,0,0,0,0,0,0,0,0,0,0,0,0,0,0,0,0,0,0,0,0,0,0,0,0,0,0,0,0,0,0,0,0,0,0,0,0,0,0,0,0,0,0,0,0,0,0,0,0,0,0,0,0,0,0,0,0,0,0,0,0,0],"sum_hessian":[1.105E3,7.59E2,3.46E2,3.84E2,3.75E2,2.8E2,6.6E1,1.6E2,2.24E2,2.52E2,1.23E2,1.22E2,1.58E2,6E1,6E0,4.1E1,1.19E2,1.18E2,1.06E2,9.7E1,1.55E2,7.9E1,4.4E1,5.7E1,6.5E1,1.42E2,1.6E1,2.8E1,3.2E1,3.7E1,4E0,9.7E1,2.2E1,1.9E1,9.9E1,3E0,1.03E2,2.4E1,7.3E1,9E0,1.46E2,3.7E1,4.2E1,1.3E1,3.1E1,2.6E1,3.1E1,3.2E1,3.3E1,7.5E1,6.7E1,6E0,1E1,1E0,2.7E1,8E0,2.4E1,1.7E1,8E1,1.8E1,4E0,1E0,9.8E1,2E0,1E0,7.2E1,3.1E1,1.8E1,6E0,6.6E1,7E0,3E0,6E0,7.6E1,7E1,3.5E1,2E0,7E0,3.5E1,7E0,6E0,1.5E1,1.6E1,1.6E1,1E1,9E0,2.2E1,3E1,2E0,3E1,3E0,7.2E1,3E0,7E0,6E1],"tree_param":{"num_deleted":"0","num_feature":"8","num_nodes":"95","size_leaf_vector":"1"}},{"base_weights":[-2.1339031E-2,8.961464E-1,-2.0307558E0,1.590174E0,1.831232E-1,-1.6325166E0,-3.8000793E0,1.2530963E0,2.1394534E0,3.4111485E-1,-6.383273E-1,-1.0806582E0,-2.450825E0,-3.2459567E0,-5.3568745E0,1.5701989E0,1.0009148E0,2.8041086E-1,1.9341165E0,6.100427E-1,-1.9304669E-2,1.969062E-2,-8.93009E-1,-1.346867E0,-6.73513E-1,-1.806798E0,-2.7368276E0,-2.5005367E0,-4.2913284E0,-1.58535E-1,-5.51303E-1,1.6940106E0,1.1062409E0,5.86201E-1,1.1541767E0,1.3973359E0,2.0691972E0,1.1618363E0,5.014671E-1,1.230224E-1,-5.053487E-1,2.4388768E-1,-4.6935144E-1,-5.5185366E-1,-1.2748028E0,-1.170563E0,-1.5952816E0,-1.0146621E0,-2.824532E-1,-1.2815057E-1,-1.9733428E0,-3.8352785E0,-2.5156367E0,-5.527935E-2,-2.547035E-1,-1.0573711E-1,-4.4122502E-1,5.9501838E-2,1.7286511E-1,1.3282673E-1,5.6394197E-2,1.0908508E-1,4.7990393E-2,1.1929635E-1,-6.5250397E-3,6.849562E-2,1.576802E-1,2.1743198E-1,1.3507316E-1,1.1959054E-1,1.039505E-2,6.862921E-2,2.6651654E-2,-9.363967E-3,4.5540366E-2,-1.3956566E-1,-3.6011368E-2,5.8600463E-2,2.6724075E-3,-1.1543656E-2,-5.1704712E-2,-7.488022E-2,6.155723E-3,-6.2276542E-2,-1.6575973E-1,-9.6091524E-2,-1.4400132E-1,-1.8426133E-2,-1.626737E-1,-5.980779E-2,-1.3778432E-1,3.4749907E-2,-3.7803017E-2,-2.0083173E-1,-5.320034E-2,-8.057862E-2,-4.057649E-1,-5.4333687E-2,-2.5372878E-1],"categories":[],"categories_nodes":[],"categories_segments":[],"categories_sizes":[],"default_left":[0,0,0,0,0,0,0,0,0,0,0,0,0,0,0,0,0,0,0,0,0,0,0,0,0,0,0,0,0,0,0,0,0,0,0,0,0,0,0,0,0,0,0,0,0,0,0,0,0,0,0,0,0,0,0,0,0,0,0,0,0,0,0,0,0,0,0,0,0,0,0,0,0,0,0,0,0,0,0,0,0,0,0,0,0,0,0,0,0,0,0,0,0,0,0,0,0,0,0],"id":16,"left_children":[1,3,5,7,9,11,13,15,17,19,21,23,25,27,29,31,33,-1,35,37,39,41,43,45,47,49,51,53,55,-1,-1,57,59,61,63,65,67,69,71,73,75,77,79,81,83,85,87,89,91,-1,93,95,97,-1,-1,-1,-1,-1,-1,-1,-1,-1,-1,-1,-1,-1,-1,-1,-1,-1,-1,-1,-1,-1,-1,-1,-1,-1,-1,-1,-1,-1,-1,-1,-1,-1,-1,-1,-1,-1,-1,-1,-1,-1,-1,-1,-1,-1,-1],"loss_changes":[2.0408531E3,3.7580066E2,2.3829724E2,6.8601746E1,4.9015892E1,1.2605481E2,3.6959045E1,1.77005E1,1.4365845E1,3.064066E1,1.0240276E1,1.7735199E1,1.60531E1,2.745221E1,9.411621E-2,4.157593E0,8.031113E0,0E0,5.3746033E0,1.0261314E1,9.470272E0,2.0880213E0,5.0275345E0,2.6436615E0,9.05209E0,7.955551E-1,9.060303E0,1.3995972E0,2.7646484E0,0E0,0E0,2.0550537E0,2.2610493E0,1.5685644E0,4.760315E0,2.244011E0,3.7850037E0,9.208832E-1,6.4610786E0,7.6761713E0,3.505825E0,9.5017916E-1,4.15951E-2,3.0663538E0,3.9596329E0,2.2316055E0,1.4756165E0,4.7738724E0,2.1784675E0,0E0,2.9264832E-1,4.1407776E0,1.4824524E0,0E0,0E0,0E0,0E0,0E0,0E0,0E0,0E0,0E0,0E0,0E0,0E0,0E0,0E0,0E0,0E0,0E0,0E0,0E0,0E0,0E0,0E0,0E0,0E0,0E0,0E0,0E0,0E0,0E0,0E0,0E0,0E0,0E0,0E0,0E0,0E0,0E0,0E0,0E0,0E0,0E0,0E0,0E0,0E0,0E0,0E0],"parents":[2147483647,0,0,1,1,2,2,3,3,4,4,5,5,6,6,7,7,8,8,9,9,10,10,11,11,12,12,13,13,14,14,15,15,16,16,18,18,19,19,20,20,21,21,22,22,23,23,24,24,25,25,26,26,27,27,28,28,31,31,32,32,33,33,34,34,35,35,36,36,37,37,38,38,39,39,40,40,41,41,42,42,43,43,44,44,45,45,46,46,47,47,48,48,50,50,51,51,52,52],"right_children":[2,4,6,8,10,12,14,16,18,20,22,24,26,28,30,32,34,-1,36,38,40,42,44,46,48,50,52,54,56,-1,-1,58,60,62,64,66,68,70,72,74,76,78,80,82,84,86,88,90,92,-1,94,96,98,-1,-1,-1,-1,-1,-1,-1,-1,-1,-1,-1,-1,-1,-1,-1,-1,-1,-1,-1,-1,-1,-1,-1,-1,-1,-1,-1,-1,-1,-1,-1,-1,-1,-1,-1,-1,-1,-1,-1,-1,-1,-1,-1,-1,-1,-1],"split_conditions":[3.86E1,5.086874E0,5.986849E0,7.7166214E0,5.6439333E0,8.21E1,6.3039002E0,4.7792497E0,4.2912946E0,2.14E1,1.41E1,3.786124E0,5.7070436E0,1.28E2,3.226E0,2.202E0,5.7693095E0,2.8041086E-1,9.8079956E1,7.1E0,5.432232E0,5.840019E0,5.341384E0,5.679664E0,3.5779479E0,4.538E0,2.7388997E0,4.49E1,5.448E0,-1.58535E-1,-5.51303E-1,3.775057E0,4.5934415E0,9.3E0,1.0246556E1,8.442133E0,6.2E0,1.746E0,5.326375E0,4.8132153E0,5.448305E0,8.7928986E1,8.8E0,5.1043506E0,2.635E0,4.36E0,2.018E0,5.4622416E0,3.6788292E0,-1.2815057E-1,7.125098E0,8.52E1,3.767E0,-5.527935E-2,-2.547035E-1,-1.0573711E-1,-4.4122502E-1,5.9501838E-2,1.7286511E-1,1.3282673E-1,5.6394197E-2,1.0908508E-1,4.7990393E-2,1.1929635E-1,-6.5250397E-3,6.849562E-2,1.576802E-1,2.1743198E-1,1.3507316E-1,1.1959054E-1,1.039505E-2,6.862921E-2,2.6651654E-2,-9.363967E-3,4.5540366E-2,-1.3956566E-1,-3.6011368E-2,5.8600463E-2,2.6724075E-3,-1.1543656E-2,-5.1704712E-2,-7.488022E-2,6.155723E-3,-6.2276542E-2,-1.6575973E-1,-9.6091524E-2,-1.4400132E-1,-1.8426133E-2,-1.626737E-1,-5.980779E-2,-1.3778432E-1,3.4749907E-2,-3.7803017E-2,-2.0083173E-1,-5.320034E-2,-8.057862E-2,-4.057649E-1,-5.4333687E-2,-2.5372878E-1],"split_indices":[3,1,1,7,1,3,1,1,1,3,3,6,1,3,4,4,7,0,5,3,1,1,7,1,2,4,7,3,4,0,0,2,1,3,0,7,3,4,1,7,1,5,3,7,4,4,4,1,2,0,0,3,4,0,0,0,0,0,0,0,0,0,0,0,0,0,0,0,0,0,0,0,0,0,0,0,0,0,0,0,0,0,0,0,0,0,0,0,0,0,0,0,0,0,0,0,0,0,0],"split_type":[0,0,0,0,0,0,0,0,0,0,0,0,0,0,0,0,0,0,0,0,0,0,0,0,0,0,0,0,0,0,0,0,0,0,0,0,0,0,0,0,0,0,0,0,0,0,0,0,0,0,0,0,0,0,0,0,0,0,0,0,0,0,0,0,0,0,0,0,0,0,0,0,0,0,0,0,0,0,0,0,0,0,0,0,0,0,0,0,0,0,0,0,0,0,0,0,0,0,0],"sum_hessian":[1.105E3,7.59E2,3.46E2,3.84E2,3.75E2,2.84E2,6.2E1,2.4E2,1.44E2,3.15E2,6E1,1.71E2,1.13E2,4.8E1,1.4E1,1.04E2,1.36E2,3.1E1,1.13E2,1.8E2,1.35E2,1.7E1,4.3E1,1.02E2,6.9E1,3.7E1,7.6E1,3E1,1.8E1,1E0,1.3E1,8E1,2.4E1,3.8E1,9.8E1,2.5E1,8.8E1,2.8E1,1.52E2,1.05E2,3E1,1.2E1,5E0,2.4E1,1.9E1,6.3E1,3.9E1,3.6E1,3.3E1,1.1E1,2.6E1,1E1,6.6E1,1E0,2.9E1,1E0,1.7E1,3E0,7.7E1,1.6E1,8E0,5E0,3.3E1,9.5E1,3E0,6E0,1.9E1,7.5E1,1.3E1,2.7E1,1E0,8.4E1,6.8E1,6.4E1,4.1E1,3E0,2.7E1,4E0,8E0,1E0,4E0,1.8E1,6E0,8E0,1.1E1,3.8E1,2.5E1,1E0,3.8E1,1.8E1,1.8E1,4E0,2.9E1,2.5E1,1E0,1E0,9E0,1E0,6.5E1],"tree_param":{"num_deleted":"0","num_feature":"8","num_nodes":"99","size_leaf_vector":"1"}},{"base_weights":[-2.103778E-2,7.498554E-1,-1.9765271E0,1.4085952E0,7.412195E-2,-1.2585795E0,-2.7996762E0,1.7431802E0,9.3698895E-1,2.29512E-1,-7.43469E-1,-9.7401375E-1,-1.7726169E0,-2.5414155E0,-4.868509E0,2.0570865E0,1.4671555E0,5.252762E-1,1.0866922E0,4.8140875E-1,-1.0914918E-1,-3.5285768E-1,-1.2857674E0,-4.9162027E-1,-1.0877333E0,-1.1901537E-1,-1.9616694E0,-2.1217623E0,-3.7233624E0,-2.4758549E-1,-5.2603513E-1,1.80057E0,2.475483E0,1.7367052E0,1.2469879E0,7.152815E-1,3.1338438E-1,1.4889058E0,9.635329E-1,5.7084274E-1,-2.2748947E-1,2.0222309E-1,-3.0831814E-1,-2.379547E-1,-1.2700443E-1,-2.6354471E-2,-1.3599716E0,-7.283529E-2,-5.2803624E-1,-1.1749715E0,-5.790265E-1,-2.0095036E0,-6.540464E-2,-1.524285E0,-2.2537277E0,-2.145872E-1,-3.9944395E-1,1.8789123E-1,8.270732E-2,9.167964E-2,2.53661E-1,1.7764056E-1,7.864227E-2,1.7806348E-1,1.1357832E-1,4.6291765E-2,9.2906885E-2,4.8260777E-3,4.993112E-2,2.7466202E-2,1.5250435E-1,6.848877E-2,1.23371474E-1,1.2391376E-1,4.928568E-2,-4.761416E-2,6.4448267E-3,-4.1535827E-3,6.790977E-2,-6.454389E-2,-1.7708039E-2,-3.6271043E-2,2.2843456E-2,-9.5458984E-2,-1.5395616E-1,-1.1909485E-2,9.841919E-4,-6.2485732E-2,-4.033489E-2,-1.2604775E-1,-7.808886E-2,2.5632858E-2,-6.57004E-2,-9.571085E-2,-2.0674002E-1,-1.7504884E-2,-1.5829943E-1,-1.6324504E-1,-2.3406363E-1],"categories":[],"categories_nodes":[],"categories_segments":[],"categories_sizes":[],"default_left":[0,0,0,0,0,0,0,0,0,0,0,0,0,0,0,0,0,0,0,0,0,0,0,0,0,0,0,0,0,0,0,0,0,0,0,0,0,0,0,0,0,0,0,0,0,0,0,0,0,0,0,0,0,0,0,0,0,0,0,0,0,0,0,0,0,0,0,0,0,0,0,0,0,0,0,0,0,0,0,0,0,0,0,0,0,0,0,0,0,0,0,0,0,0,0,0,0,0,0],"id":17,"left_children":[1,3,5,7,9,11,13,15,17,19,21,23,25,27,29,31,33,35,37,39,41,43,45,47,49,-1,51,53,55,-1,-1,57,59,61,63,65,67,69,71,73,75,77,79,81,-1,-1,83,85,87,89,91,93,-1,95,97,-1,-1,-1,-1,-1,-1,-1,-1,-1,-1,-1,-1,-1,-1,-1,-1,-1,-1,-1,-1,-1,-1,-1,-1,-1,-1,-1,-1,-1,-1,-1,-1,-1,-1,-1,-1,-1,-1,-1,-1,-1,-1,-1,-1],"loss_changes":[1.6687476E3,3.533308E2,1.8145264E2,6.1799255E1,5.0099514E1,2.2994354E1,6.510022E1,1.725708E1,9.845444E0,2.8289377E1,1.2891468E1,5.5544434E0,4.1621704E0,5.7076965E1,1.0393066E0,7.02652E0,5.4306335E0,1.6680899E0,4.6583557E0,1.2175789E1,8.868577E0,3.7025113E0,1.6137657E0,3.1230068E-1,3.2693558E0,0E0,1.3752899E0,4.3704224E0,5.539978E0,0E0,0E0,3.7846222E0,1.2950287E0,6.7796326E-1,2.369049E0,8.6476994E-1,1.1589487E0,7.65892E-1,6.4576797E0,8.197155E0,1.627687E0,6.5377817E0,3.7348433E0,2.1193206E0,0E0,0E0,2.7761078E-1,1.2645954E-2,1.4843941E-3,1.5429459E0,1.1454911E0,5.194092E-1,0E0,1.386364E0,4.446106E-1,0E0,0E0,0E0,0E0,0E0,0E0,0E0,0E0,0E0,0E0,0E0,0E0,0E0,0E0,0E0,0E0,0E0,0E0,0E0,0E0,0E0,0E0,0E0,0E0,0E0,0E0,0E0,0E0,0E0,0E0,0E0,0E0,0E0,0E0,0E0,0E0,0E0,0E0,0E0,0E0,0E0,0E0,0E0,0E0],"parents":[2147483647,0,0,1,1,2,2,3,3,4,4,5,5,6,6,7,7,8,8,9,9,10,10,11,11,12,12,13,13,14,14,15,15,16,16,17,17,18,18,19,19,20,20,21,21,22,22,23,23,24,24,26,26,27,27,28,28,31,31,32,32,33,33,34,34,35,35,36,36,37,37,38,38,39,39,40,40,41,41,42,42,43,43,46,46,47,47,48,48,49,49,50,50,51,51,53,53,54,54],"right_children":[2,4,6,8,10,12,14,16,18,20,22,24,26,28,30,32,34,36,38,40,42,44,46,48,50,-1,52,54,56,-1,-1,58,60,62,64,66,68,70,72,74,76,78,80,82,-1,-1,84,86,88,90,92,94,-1,96,98,-1,-1,-1,-1,-1,-1,-1,-1,-1,-1,-1,-1,-1,-1,-1,-1,-1,-1,-1,-1,-1,-1,-1,-1,-1,-1,-1,-1,-1,-1,-1,-1,-1,-1,-1,-1,-1,-1,-1,-1,-1,-1,-1,-1],"split_conditions":[4.49E1,5.113613E0,5.7457047E0,4.7792497E0,5.7042656E0,7.85E1,6.3039002E0,4.5E0,5.7693095E0,2.29E1,2.829E0,5.448305E0,4.538E0,1.28E2,3.244E0,9.966092E1,4.4607916E0,2.26E0,4.5618186E0,2.952E0,5.319178E0,5.9573593E0,3.9254625E0,2.415E0,6.0605022E1,-1.1901537E-1,7.125098E0,6.59E1,5.623E0,-2.4758549E-1,-5.2603513E-1,9.957228E1,1.00347185E1,1.1077624E1,4.5946617E0,1.736E0,2.615E0,4.2972856E0,6.8663187E0,5.8E0,9.339127E1,4.8132153E0,3.5779479E0,4.59512E0,-1.2700443E-1,-2.6354471E-2,7.6345735E0,6.7762995E0,3.8642566E0,4.3617616E0,4.72E1,5.498139E0,-6.540464E-2,2.018E0,5.78476E0,-2.145872E-1,-3.9944395E-1,1.8789123E-1,8.270732E-2,9.167964E-2,2.53661E-1,1.7764056E-1,7.864227E-2,1.7806348E-1,1.1357832E-1,4.6291765E-2,9.2906885E-2,4.8260777E-3,4.993112E-2,2.7466202E-2,1.5250435E-1,6.848877E-2,1.23371474E-1,1.2391376E-1,4.928568E-2,-4.761416E-2,6.4448267E-3,-4.1535827E-3,6.790977E-2,-6.454389E-2,-1.7708039E-2,-3.6271043E-2,2.2843456E-2,-9.5458984E-2,-1.5395616E-1,-1.1909485E-2,9.841919E-4,-6.2485732E-2,-4.033489E-2,-1.2604775E-1,-7.808886E-2,2.5632858E-2,-6.57004E-2,-9.571085E-2,-2.0674002E-1,-1.7504884E-2,-1.5829943E-1,-1.6324504E-1,-2.3406363E-1],"split_indices":[3,1,1,1,1,3,1,3,7,3,4,1,4,3,4,5,1,4,6,4,1,1,7,4,5,0,0,3,4,0,0,5,0,0,6,4,4,2,7,3,5,7,2,2,0,0,0,0,7,7,3,1,0,4,1,0,0,0,0,0,0,0,0,0,0,0,0,0,0,0,0,0,0,0,0,0,0,0,0,0,0,0,0,0,0,0,0,0,0,0,0,0,0,0,0,0,0,0,0],"split_type":[0,0,0,0,0,0,0,0,0,0,0,0,0,0,0,0,0,0,0,0,0,0,0,0,0,0,0,0,0,0,0,0,0,0,0,0,0,0,0,0,0,0,0,0,0,0,0,0,0,0,0,0,0,0,0,0,0,0,0,0,0,0,0,0,0,0,0,0,0,0,0,0,0,0,0,0,0,0,0,0,0,0,0,0,0,0,0,0,0,0,0,0,0,0,0,0,0,0,0],"sum_hessian":[1.105E3,7.93E2,3.12E2,4.01E2,3.92E2,1.68E2,1.44E2,2.33E2,1.68E2,3.3E2,6.2E1,1.1E2,5.8E1,1.3E2,1.4E1,1.06E2,1.27E2,4.6E1,1.22E2,1.89E2,1.41E2,3.7E1,2.5E1,2.2E1,8.8E1,1.6E1,4.2E1,9.8E1,3.2E1,3E0,1.1E1,6.9E1,3.7E1,5.4E1,7.3E1,2.3E1,2.3E1,2.6E1,9.6E1,1.68E2,2.1E1,5.5E1,8.6E1,3.4E1,3E0,2E0,2.3E1,2E0,2E1,7.4E1,1.4E1,4E1,2E0,2E1,7.8E1,6E0,2.6E1,6.3E1,6E0,2E0,3.5E1,5.1E1,3E0,1E1,6.3E1,1.2E1,1.1E1,1E1,1.3E1,1E0,2.5E1,4.9E1,4.7E1,1.6E1,1.52E2,1.1E1,1E1,3.7E1,1.8E1,2.3E1,6.3E1,2.7E1,7E0,9E0,1.4E1,1E0,1E0,9E0,1.1E1,5.9E1,1.5E1,1E0,1.3E1,3E0,3.7E1,1E0,1.9E1,1.2E1,6.6E1],"tree_param":{"num_deleted":"0","num_feature":"8","num_nodes":"99","size_leaf_vector":"1"}}]},"name":"gbtree"},"name":"dart","weight_drop":[1E0,1E0,1E0,1E0,1E0,1E0,1E0,1E0,1E0,1E0,1E0,1E0,1E0,1E0,1E0,1E0,1E0,1E0]},"learner_model_param":{"base_score":"7.031979E1","boost_from_average":"1","num_class":"0","num_feature":"8","num_target":"1"},"objective":{"name":"reg:squarederror","reg_loss_param":{"scale_pos_weight":"1"}}},"version":[2,1,3]}